v1673 -0.199622 -0.399447 -0.320984 0.397040 0.194313 -0.660000 -0.118716 -0.212947 0.272803 -0.045437 -0.345591 -0.143703 0.135573 0.028770 -0.037338 -0.096724 0.174267 1.658981 0.760870 -0.375884 0.458527 0.020618 -0.080540 0.597794 0.247779 -0.403111 -0.205012 0.293678 0.533128 -0.051001 -0.640660 0.009289 -0.380946 -0.464576 0.437010 -0.417897 -0.585057 -0.643608 0.063666 0.327708 -0.236455 0.079674 0.308547 -0.033470 -0.125938 0.224777 -0.187796 0.094423 0.173220 0.114217 -0.486533 -0.231418 -0.215419 -0.426246 0.113959 -1.172143 -0.432356 0.007229 -0.032236 -0.327243 -0.487902 0.369798 -0.412863 0.248818 -0.141537 0.327730 0.179328 -0.117083 0.363872 -0.048348 1.043428 -0.005587 -0.215262 -0.047721 0.206671 0.086882 -0.910739 -0.652631 0.159266 -0.035863 -0.357186 0.079930 0.063462 0.124333 -0.381384 -0.400316 -0.277319 -0.500831 0.662783 0.663711 -0.625096 0.210148 -0.267788 0.563744 -0.349955 0.296120 0.167147 0.513940 0.021603 0.137410 -0.574006 0.231648 -0.124408 0.459175 0.274707 0.219298 -1.173457 -0.406034 -0.631135 -0.395105 -0.159728 -0.210796 0.006844 0.104087 0.566467 0.582902 0.335748 -0.602859 0.161484 1.023132 -0.558581 0.123484 -0.073454 -0.628547 -0.718572 -0.217765 0.469936 0.035055 
v1654 -0.059402 -0.270261 -0.165898 0.361802 0.422688 -0.550979 -0.319740 -0.315823 0.190364 -0.063919 0.384925 0.571079 -0.166177 0.341400 -0.275469 -0.092145 -0.168289 0.743293 -0.110430 -0.675237 0.088770 -0.255587 -0.260000 0.177124 -0.042799 -0.320384 -0.300077 0.392178 0.802367 -0.171402 0.042030 -0.218409 -0.409277 -0.360753 0.234724 0.049952 -0.001175 -0.224591 0.399141 -0.345960 -0.368796 0.343844 -0.167272 0.442249 -0.469099 0.162867 -0.138674 0.552670 0.550291 0.113310 -0.117424 -0.607623 -0.102474 0.047949 0.054277 0.265323 -0.312249 -0.248326 -0.075791 0.164872 -0.145964 0.189365 0.202004 -0.397988 -0.594819 0.220552 0.008420 0.043729 0.112103 0.137056 0.415802 0.266435 0.132928 0.130020 -0.119114 0.045527 -0.418638 0.127858 -0.016777 0.554511 -0.574242 0.163431 -0.870053 0.122046 0.088337 0.095254 -0.529971 -0.205041 0.282692 -0.152635 -0.583211 0.232098 0.104154 0.025534 0.172161 -0.049857 -0.035192 -0.011464 -0.031724 -0.047281 -0.387165 0.026706 -0.082185 0.390589 -0.128248 0.015567 -0.294371 0.105238 0.148414 -0.063250 -0.182142 -0.281294 -0.295614 0.284809 0.635154 0.320579 -0.139532 -0.651534 -0.506401 -0.304751 0.359070 -0.089809 -0.037467 -0.495869 0.004683 0.147998 0.119983 0.287410 
v1656 -0.344242 0.002841 -0.058879 0.373494 0.203435 -0.170333 -0.205037 -0.081614 0.154471 0.498565 0.433866 0.345609 0.137730 0.030344 0.120480 0.052111 -0.065965 0.737246 -0.026862 0.007078 0.737265 -0.158850 -0.344256 0.299501 0.017594 0.303974 0.011228 0.474718 0.644922 -0.135389 -0.428046 0.157652 -0.305201 -0.046112 0.647538 0.143042 -0.299473 -0.054971 0.540294 -0.176517 0.084290 -0.125893 0.018917 0.331981 -0.211590 -0.174480 -0.384158 0.155594 0.156429 0.509388 -0.143663 -0.346069 -0.242534 0.045964 -0.060245 0.146392 -0.155881 -0.179543 -0.029942 -0.133519 -0.238135 -0.489349 0.323637 -0.342586 -0.214530 0.132109 0.125699 0.119167 0.034560 0.268964 0.332383 0.317686 0.203833 0.242330 0.160555 0.071660 -0.388052 -0.235576 0.077443 0.389371 -0.390938 0.186945 -0.321886 0.093197 -0.370774 -0.021988 -0.041407 -0.504515 0.704185 0.215484 -0.561178 0.218705 -0.260662 0.120494 0.305694 0.182000 -0.203910 -0.179319 -0.448549 -0.133207 -0.549742 0.276930 0.333419 0.437015 0.041554 0.134498 -0.480322 0.118208 -0.246364 -0.083709 -0.068708 -0.162732 0.083351 0.344236 0.262905 0.258298 0.247000 -0.120397 -0.021043 0.092813 0.075316 -0.043873 -0.128114 -0.310878 -0.172200 -0.169489 -0.065704 0.225590 
v1678 -0.107978 -0.475708 -0.178768 0.269963 0.407945 -0.747940 -0.357751 -0.328571 0.211702 -0.065256 -0.153391 -0.027188 0.091947 0.082333 -0.201832 -0.165305 0.063952 1.101350 0.555471 -0.446518 0.336946 0.093835 0.001625 0.430016 0.570603 -0.269987 -0.074798 -0.034989 0.516541 -0.131461 -0.479917 0.160755 0.049862 -0.176920 0.266488 -0.337867 -0.417660 -0.774569 -0.170766 0.347192 -0.187421 0.285231 0.245593 -0.026617 -0.009475 0.227071 -0.423171 0.279274 0.161213 0.010156 -0.596994 0.064588 -0.283550 -0.637536 0.125306 -0.777477 -0.412469 0.035068 0.037915 -0.164052 -0.394202 0.401879 -0.090290 0.219744 -0.303699 0.627104 0.192826 -0.220023 0.385086 0.116649 0.760862 0.149256 -0.058298 -0.029652 0.069232 -0.080265 -0.592752 -0.641289 0.252896 0.002588 -0.401511 -0.193570 0.039263 0.177375 -0.475388 -0.368133 -0.328846 -0.628037 0.541100 0.383898 -0.462165 0.415824 -0.235313 0.248636 -0.511510 -0.054489 0.080944 0.500940 0.248227 0.259349 -0.588285 0.178101 -0.052649 0.747839 0.317599 0.233352 -1.364780 -0.184837 -0.584443 -0.660391 -0.028072 -0.299094 0.091778 0.148079 0.435878 0.611680 0.247088 -0.591565 0.151412 0.692422 -0.520100 -0.018433 -0.066677 -0.993902 -0.760623 -0.123383 0.571142 0.560934 
v1663 -0.154640 -0.024133 -0.040753 0.507343 0.190551 -0.449911 -0.625165 -0.333482 0.279196 0.129069 0.534949 0.480890 -0.290366 -0.201983 0.059704 0.008544 -0.027251 0.880754 -0.143688 -0.380830 0.393014 -0.055881 -0.415534 -0.331733 -0.463832 0.359363 -0.404321 0.032665 0.094700 -0.567197 -0.424259 -0.183427 -0.505286 -0.092484 0.095505 0.095948 0.057171 -0.037291 -0.166306 -0.115262 -0.330634 0.121385 -0.008759 0.192596 -0.360906 -0.189402 -0.220729 -0.003278 -0.273816 0.185865 -0.229593 0.032313 -0.312432 0.062598 -0.324272 0.227746 -0.024651 -0.234330 0.193320 0.175079 -0.092943 0.007175 0.080935 -0.341800 -0.183036 0.278760 0.084739 0.138871 0.228643 0.484086 -0.032692 0.180539 0.071461 0.169903 0.056539 0.102929 0.020277 -0.273360 0.109024 0.240577 0.029439 0.051255 -0.086447 -0.255935 -0.223001 0.025560 0.246218 -0.210181 0.908194 0.128572 -0.323893 0.159046 0.341735 0.063847 -0.099346 0.117954 -0.388064 0.122979 0.017052 0.220459 -0.643031 0.140749 -0.095879 0.442285 -0.339056 0.005119 -0.535172 0.372898 0.197413 -0.408940 -0.043385 -0.258602 0.147205 0.249068 0.228288 0.646001 0.423323 -0.389435 -0.088500 -0.211340 -0.064273 -0.045903 0.032377 -0.256865 0.141359 -0.467520 -0.091326 0.130922 
v1684 -0.193913 0.233799 0.022313 0.212885 0.321560 -0.640844 -0.419566 0.160549 0.376249 -0.050062 0.188006 -0.303469 -0.157522 -0.000527 -0.048467 -0.591563 -0.099054 0.600649 0.036969 0.089851 0.590159 -0.087109 -0.412893 0.035410 -0.218601 0.381635 -0.021757 0.071760 0.333657 -0.665379 -0.303554 -0.101284 -0.313177 -0.613444 0.441635 0.307960 0.139232 -0.028936 0.054375 0.116430 0.248142 0.414747 -0.224802 -0.084666 0.230244 -0.085822 -0.128536 -0.132170 -0.080647 0.213998 0.231684 -0.021766 0.351795 0.027942 0.004456 0.148777 0.072554 0.102079 0.032468 0.165693 0.009660 -0.332442 -0.080917 -0.318332 -0.280270 -0.190532 0.076950 0.004381 -0.150455 0.317689 0.030710 0.098015 -0.240825 0.030428 0.412182 -0.069093 -0.013165 0.007732 0.052349 0.139876 0.192734 0.244727 -1.427693 -0.185728 0.257860 -0.084463 -0.504614 -0.155697 0.436418 -0.009233 -0.530353 0.085795 0.362323 0.306764 0.097964 -0.318052 -0.369717 -0.139197 -0.232159 0.148529 -0.421863 0.380466 0.570037 0.486084 0.013270 -0.414422 -0.525292 -0.023328 0.014443 -0.456632 -0.011518 -0.150265 0.260616 0.195176 0.383557 0.056799 -0.228530 0.239494 0.383920 -0.013495 0.004335 -0.145479 -0.140698 -0.198040 0.027780 -0.059099 0.219161 0.449078 
v1675 0.126605 0.048047 -0.125191 0.527073 0.417111 -0.540463 -0.282118 -0.005346 0.123398 0.252149 0.247935 0.117942 0.001806 -0.198614 -0.100161 -0.399232 0.068317 0.683107 -0.180492 -0.422232 0.099969 -0.294015 0.130061 0.481515 -0.240161 -0.248180 -0.063571 -0.151541 0.463625 -0.390968 -0.446730 -0.106869 -0.455106 -0.068636 -0.050878 0.012015 -0.359554 -0.196232 0.039934 -0.163732 0.005208 0.168675 -0.083336 0.297269 -0.274212 -0.061133 -0.052478 0.053874 0.151610 0.158361 -0.437079 -0.007661 -0.061383 -0.126092 -0.011592 -0.183026 -0.300158 -0.063115 -0.067365 -0.254800 -0.243208 0.084081 0.268863 -0.228571 -0.228482 0.022228 -0.020612 0.110443 0.253450 0.143326 0.502586 0.122309 0.097895 0.047791 0.142329 -0.024316 -0.636798 -0.096079 -0.440718 0.213903 -0.045508 -0.020532 -0.279071 0.114281 -0.091904 -0.006231 -0.017462 -0.274683 0.381618 0.474361 -0.698046 0.083943 -0.192959 0.422655 -0.271245 -0.016834 -0.010441 0.073522 0.105701 0.192077 -0.425519 0.019161 0.041278 0.650469 -0.096056 0.005510 -0.653857 -0.113403 0.030996 -0.060851 -0.045907 0.079340 -0.052504 0.009380 0.235856 -0.223599 -0.002341 -0.393458 0.137016 0.076306 0.307430 0.093769 0.074494 -0.419781 -0.297993 -0.249246 0.028939 0.206484 
v1682 -0.447607 -0.270493 -0.129764 0.268857 -0.008677 -0.433301 -0.124049 -0.223273 0.178959 0.059013 -0.012629 0.287812 -0.191680 0.063746 0.020366 -0.059400 -0.303623 0.583381 0.148895 -0.171042 0.367365 0.084983 -0.282500 0.407575 0.135614 0.052811 -0.250276 0.319795 0.335307 -0.098651 -0.199351 -0.171067 -0.431562 -0.320637 0.346712 -0.083362 -0.025578 -0.188815 0.122399 0.137682 -0.401353 -0.033602 -0.078463 -0.052638 0.022091 0.014937 -0.338490 0.087290 0.027198 -0.147486 -0.060866 -0.280894 -0.068788 -0.196268 0.048326 -0.289086 -0.364830 -0.128249 -0.160107 0.026069 -0.128560 0.275737 0.063133 -0.256002 -0.181605 0.115093 0.086085 0.309497 0.067631 0.365399 0.204228 0.432068 0.144537 -0.093553 -0.059909 0.104547 -0.357098 -0.322168 -0.063341 0.495306 -0.294336 -0.112081 -0.748602 -0.026716 -0.087214 0.089570 -0.252251 -0.462945 0.292885 0.166034 -0.133293 0.188033 -0.143037 0.075653 0.093101 0.019135 0.095770 0.304852 0.066295 0.108420 -0.435523 -0.014646 -0.072679 0.385827 -0.154236 -0.016778 -0.431823 0.122759 -0.300511 -0.130105 0.195476 -0.142011 0.284287 0.121316 0.247097 0.531349 0.304696 -0.379683 -0.267625 0.037838 -0.293393 0.052906 -0.404469 -0.295621 -0.199603 -0.106395 0.153293 0.074634 
v1651 -0.194893 -0.408726 -0.093904 0.565396 0.678441 -0.472350 -0.691772 -0.251458 0.309800 -0.019663 0.415680 0.443988 -0.105933 -0.022234 0.203363 -0.185538 -0.152478 0.998956 0.126848 -0.384100 0.328171 0.132707 -0.242813 -0.377527 -0.073299 0.529793 -0.501014 -0.110969 0.402619 -0.237410 -0.201684 -0.184320 -0.552365 -0.334278 0.181845 -0.249702 -0.182803 -0.462845 -0.030991 -0.075009 -0.497723 -0.024120 0.152358 0.031699 -0.312147 0.004111 -0.045350 -0.089613 0.130615 0.684279 0.354248 0.555501 -0.595829 -0.199248 -0.567481 -0.392580 0.058846 0.034314 -0.080246 0.398522 0.244648 0.031387 0.464396 -0.388046 -0.292270 -0.235307 0.133667 -0.481484 0.138159 0.406811 0.017291 0.138200 0.331637 0.186373 -0.019152 0.188668 -0.235164 -0.525400 0.197679 0.237945 0.026737 0.051764 -0.508116 -0.194674 -0.451049 0.000160 0.224199 -0.305614 0.530993 0.166005 -0.345632 0.265486 0.300030 -0.171669 -0.309515 -0.148518 -0.216494 0.092573 0.096486 0.089315 -0.477811 0.143036 -0.197608 0.407629 0.087227 0.170430 -0.587929 0.105995 0.011690 -0.821414 0.007866 -0.060085 0.358903 -0.085271 0.238685 0.485370 0.080116 -0.691223 0.033723 -0.051173 -0.293396 -0.205308 0.315800 -0.735758 -0.114388 -0.238051 -0.089235 0.627626 
v1638 0.220137 0.011580 -0.018302 0.399430 0.277403 -0.510724 -0.283829 -0.252519 0.129101 0.045598 0.367050 0.098348 -0.083253 -0.123835 0.108240 -0.408214 0.432239 0.941221 0.364742 -0.370130 0.312170 0.159857 -0.501315 -0.209602 -0.075241 0.138944 -0.401613 0.246076 -0.015414 -0.919656 -0.539845 -0.366377 -0.801221 -0.076571 -0.078537 0.049154 0.197539 -0.412526 -0.246640 -0.188677 -0.202369 0.185797 0.334700 0.094330 -0.340931 -0.063755 0.045136 0.120422 -0.502320 -0.240654 -0.402561 -0.270816 -0.323097 -0.118337 -0.398503 0.084780 0.138616 -0.196806 0.414984 0.038470 -0.036800 0.036318 -0.016528 -0.276794 0.049611 0.294487 0.159947 0.458095 0.125416 0.147741 0.093927 0.508824 0.078456 -0.021289 0.059138 0.031262 0.095771 -0.414478 0.297585 0.359856 -0.072332 0.176300 -0.272248 -0.304424 -0.120122 -0.154503 0.031033 0.082614 0.830025 -0.262002 -0.268584 -0.007165 0.383104 0.541992 0.030993 0.171288 -0.246789 0.638708 0.110557 0.482214 -1.109182 0.251130 -0.133711 0.544783 -0.469108 -0.150638 -0.797961 0.197882 0.223404 -0.361246 -0.420313 -0.332735 0.057698 0.239665 0.322296 0.438895 0.399796 -0.376829 -0.187846 -0.244815 -0.051011 -0.210549 0.018606 -0.587601 0.250231 -0.343007 -0.188872 0.338016 
v1661 -0.773797 -0.080340 -0.248073 0.077641 0.194515 -0.660672 -0.678464 -0.509782 0.226931 0.233083 0.693201 0.234543 -0.213457 0.136632 0.128298 -0.033076 -0.116230 1.185197 -0.073149 -0.519490 0.015896 -0.372282 -0.552518 -0.047067 -0.074555 0.344766 -0.745144 -0.227780 0.330808 -0.336695 -0.554917 -0.191093 -0.484494 -0.385842 -0.177475 0.123369 -0.147255 0.561070 -0.141787 -0.162950 -0.283506 -0.224558 -0.670747 0.328923 -0.559435 -0.431220 -0.210289 0.274186 -0.079536 0.220925 -0.461075 -0.090517 -0.093754 0.078017 -0.144846 0.285647 -0.499813 -0.051379 -0.209248 0.406073 0.118477 0.230587 -0.149626 -0.212981 -0.408685 0.373697 -0.215961 0.035920 0.210747 0.587124 0.068161 0.083402 -0.080518 0.213272 -0.126618 0.198400 0.070710 -0.020187 0.022938 0.087190 0.215622 0.256191 -0.544648 -0.720301 -0.123725 0.109758 0.167723 -0.066337 0.988670 0.003842 -0.265928 0.220954 0.287675 0.349121 0.203448 -0.208029 -0.099806 -0.079575 -0.205726 0.203376 -0.991367 0.062961 -0.204404 0.447275 -0.096068 0.158872 -0.554997 0.378071 0.179410 -0.393176 -0.152013 0.219840 -0.103567 -0.115808 0.180363 0.477244 0.209829 -0.269904 -0.002901 0.014722 0.182457 0.008810 -0.133106 -0.172553 0.330448 -0.323958 0.138405 0.012351 
v1650 -0.200312 -0.073783 0.116364 0.149370 0.235851 -0.460880 -0.542359 -0.103425 0.086690 0.014897 -0.011318 0.162859 0.066815 0.103282 0.028588 0.293172 0.346336 0.542345 0.340381 -0.492040 0.346643 -0.029829 -0.104203 0.285213 0.239713 -0.427381 -0.165268 0.090094 0.272828 -0.243964 -0.079289 0.165010 -0.380330 -0.228908 0.490139 0.217479 -0.301330 -0.469037 -0.319210 0.057706 0.112930 0.470665 -0.229084 0.262122 -0.034972 -0.153433 -0.248080 0.442627 0.213009 0.086606 -0.529730 -0.457502 0.122496 -0.086311 0.112833 0.091464 0.033196 -0.317259 0.009896 0.148956 -0.471266 0.143610 -0.305353 -0.178135 -0.217276 0.603362 -0.031796 -0.012758 -0.054988 0.054347 0.655718 0.349941 -0.300957 0.025842 0.285637 -0.146775 -0.025017 0.092867 0.267826 -0.048271 -0.353214 0.155509 -0.137160 -0.060442 -0.386653 -0.034784 -0.396112 -0.540998 0.517801 -0.343347 -0.771318 0.150511 0.183159 0.106267 0.096877 0.099196 -0.288467 -0.136382 -0.196194 -0.015954 -0.335374 0.010023 0.164102 0.676047 0.166636 0.175399 -0.295639 -0.039187 -0.037745 -0.206503 -0.093040 -0.542116 -0.132630 0.078319 0.349694 0.572273 0.361799 -0.033735 -0.058791 0.411700 -0.035798 -0.029081 -0.125027 -0.474525 0.512374 -0.146684 0.118420 0.145137 
v1642 0.222193 -0.417010 -0.369668 -0.054384 0.036129 -0.373509 0.157888 -0.131027 0.214745 0.340727 0.380335 0.199119 -0.053745 0.022553 0.019892 -0.259502 -0.136350 0.480509 0.509049 -0.419037 0.598319 -0.325154 -0.525569 0.101196 0.233383 0.214473 0.040407 0.008362 0.420322 -0.177429 -0.465945 -0.292615 0.061530 0.008525 0.208374 -0.071905 -0.482096 -0.587043 0.496543 0.193306 -0.066669 -0.125822 0.570721 0.330954 -0.020526 0.040726 -0.257488 0.210722 0.206319 0.308766 0.297664 0.130358 -0.075604 -0.019511 -0.131378 0.531355 -0.002064 -0.015711 0.038054 0.142027 -0.088631 -0.130344 0.114762 0.006636 -0.359221 0.357525 0.018550 -0.210750 0.153792 -0.163611 0.363813 0.139742 -0.010027 0.027609 0.440127 0.190651 -0.373079 -0.067043 -0.085476 0.421759 -0.188432 0.117667 -0.623451 0.380544 0.036833 -0.092036 -0.668036 0.260978 0.623119 0.312100 -0.532601 0.323487 -0.071172 0.391028 -0.086829 0.153205 -0.003776 0.041247 -0.001481 0.216265 -0.220947 0.467757 0.069195 0.440868 0.139867 -0.009644 0.444414 -0.134611 -0.505404 -0.065671 -0.355429 -0.378417 -0.199598 0.433356 0.925744 0.657837 0.165415 -0.443054 0.160087 -0.144280 0.129536 -0.177593 -0.389390 -0.767526 -0.149121 -0.248454 0.015299 0.715351 
f1544 -0.112566 0.190226 -0.094958 0.444414 0.141998 0.660658 0.153880 0.291529 -0.081067 0.034293 0.304992 0.163357 0.345897 0.076799 0.146377 0.325461 0.090566 -0.290155 -0.142388 0.394406 0.623299 -0.372919 0.247880 0.262775 -0.090462 -0.451605 0.049017 0.260900 -0.400417 -0.070299 0.098717 0.349093 0.220698 0.611157 0.482649 0.374005 0.168036 0.144305 0.172247 -0.145544 0.247205 -0.380492 0.004709 -0.105704 0.160035 -0.029021 -0.538169 0.177265 -0.053398 0.672986 -0.583667 0.110899 0.352700 -0.152602 -0.047499 0.123494 0.006885 -0.175784 -0.211277 -0.259608 -0.427947 -0.438085 0.000192 -0.498219 0.532705 -0.497139 0.380331 0.198439 -0.199045 0.243000 0.333054 -0.296135 0.040748 0.752090 -0.015657 0.167568 0.094285 0.082269 -0.419658 0.163767 0.104508 -0.267457 -0.480698 0.263573 -0.761948 0.215404 0.571363 -0.498499 -0.684158 -0.024759 -0.346730 -0.373616 -0.215997 -0.440640 0.413634 -0.129077 -0.130798 -0.558243 0.128576 -0.356527 0.365446 -0.623599 0.160195 0.186368 0.075412 -0.151937 0.148406 -0.167310 -0.077054 0.437677 0.041740 -0.088771 -0.065233 -0.014917 -0.319380 -0.208220 0.340952 0.707338 0.083391 -0.017154 0.227428 0.117815 -0.025452 0.288077 0.342834 0.214260 -0.165496 -0.232191 
f873 0.318077 0.023159 0.092685 0.356652 0.180571 0.483697 -0.219261 0.200790 -0.020422 0.217721 0.281644 0.461115 -0.215442 -0.542778 0.293818 -0.113139 -0.065037 -0.394078 -0.475481 -0.185396 0.128664 -0.153743 0.208251 -0.429894 -0.549450 -0.145992 -0.512799 -0.534878 -0.393791 -0.331018 0.085190 -0.089049 -0.057478 0.463412 -0.463707 -0.164235 0.313282 -0.058605 -0.428794 -0.108156 -0.219632 -0.163530 0.229165 -0.029126 -0.062750 0.011869 -0.165756 -0.133714 -0.437698 0.416731 0.190207 0.658020 -0.235143 -0.023832 -0.460714 -0.029318 0.517040 -0.139048 -0.091697 0.314936 -0.187878 0.168164 0.053248 -0.270694 0.535254 -0.820878 0.271756 -0.134766 0.143876 0.355435 -0.499837 -0.419247 0.345731 0.406507 -0.346510 0.474188 0.195345 -0.281048 -0.415188 0.087227 0.450479 -0.200715 -0.667008 0.022988 -0.642891 -0.007250 0.946735 -0.117107 -0.660390 0.106248 0.100119 -0.313827 0.111133 -0.352694 -0.340049 -0.404485 -0.213836 -0.205402 0.487063 0.053210 0.395856 -0.614056 -0.127681 0.002022 -0.330420 -0.408558 0.191406 0.043971 0.233112 0.073112 0.374587 -0.220094 0.188912 0.014761 -0.536069 0.249940 -0.079155 -0.331964 0.137672 -0.603466 -0.170172 0.254771 0.609656 0.356135 0.064852 -0.358537 -0.483430 0.133693 
f875 0.316021 0.064722 0.393144 0.492497 -0.087729 0.456446 0.077003 0.103037 -0.208693 0.221130 0.154298 0.247694 -0.243963 -0.519283 0.248049 -0.234203 0.369000 -0.420615 -0.349142 -0.032772 0.008012 -0.142888 0.029797 -0.308682 -0.553159 -0.489621 -0.363504 -0.276956 -0.726841 -0.779985 -0.181206 0.021211 -0.015739 0.900603 -0.515834 0.182391 0.503108 -0.131979 -0.476180 -0.283051 0.023347 -0.167693 0.347518 -0.190555 -0.227444 0.009304 0.091001 -0.040774 -0.751717 -0.154054 -0.580201 0.202548 0.114910 0.106161 -0.162352 0.275969 0.629831 -0.092208 0.311174 0.002703 -0.318863 0.197334 -0.038819 -0.247854 0.731758 -0.268454 0.110296 0.466259 0.225415 0.076314 -0.230835 -0.280632 0.051897 0.244335 -0.182350 0.157831 0.289678 -0.074820 -0.129946 0.040587 0.556392 -0.144021 -0.292932 -0.148949 -0.393637 -0.035850 0.674728 0.209876 -0.697525 -0.154688 0.022076 -0.475699 0.296915 0.063468 0.045164 -0.018895 -0.230007 0.032355 0.477981 0.189568 -0.101987 -0.634965 -0.350058 0.174346 -0.683971 -0.520842 0.098075 0.233149 0.215920 0.399835 0.078611 -0.332444 0.015763 0.103660 -0.489808 -0.056355 0.094138 0.056117 0.048410 -0.515669 0.207586 0.148587 0.255536 0.385759 0.543566 -0.408729 -0.486086 0.119048 
f881 0.138262 0.310952 -0.106104 0.388809 -0.122588 0.625321 -0.285183 0.217315 -0.144155 0.398851 0.214562 0.279755 -0.178122 -0.568763 0.153483 -0.033351 0.165369 -0.438242 -0.518420 0.052244 0.171799 -0.383779 0.191949 -0.610074 -0.774661 -0.396709 -0.262369 -0.383529 -0.649079 -0.294938 0.168899 -0.103729 -0.084537 0.600949 -0.627148 0.285179 0.180200 -0.158830 -0.726107 -0.206185 0.030486 -0.198123 -0.047333 0.236600 0.048510 -0.265887 -0.145784 -0.006193 -0.105117 -0.147240 -0.333575 0.491033 0.218917 0.332804 -0.225902 0.266338 0.291813 -0.366804 0.465032 -0.044080 -0.073928 0.542153 -0.213802 0.004984 0.384392 -0.123197 0.107502 -0.027071 0.554994 0.294758 -0.088727 -0.268793 -0.065131 0.386410 0.065290 0.257088 0.475660 0.065308 -0.164633 -0.189270 0.420797 -0.052706 -0.403057 -0.186428 -0.282096 -0.022794 0.397130 -0.130624 -0.116098 0.088437 -0.163453 -0.469342 0.495781 -0.102265 -0.407692 0.152062 -0.256274 -0.357896 0.360503 0.316147 0.233315 -0.789571 -0.088270 0.277859 -0.819837 -0.407936 0.238333 0.286754 0.140691 0.187349 0.577342 -0.261751 -0.154053 0.129973 -0.312024 -0.139681 0.169674 0.043921 0.041287 -0.484523 -0.146901 0.256983 0.657395 0.866324 -0.125605 -0.676932 -0.477171 -0.412971 
f882 -0.032983 -0.209992 0.192132 0.009006 -0.689447 0.623890 -0.203949 0.010343 0.240856 0.110322 0.042297 0.906419 -0.241277 -0.402366 0.116609 0.276964 -0.027198 -0.465306 -0.365731 0.037544 0.279616 -0.228008 0.125147 -0.517971 -0.682119 -0.384931 -0.417578 -0.625915 -0.514582 -0.521977 -0.054004 -0.052708 0.231129 0.440506 -0.445126 0.084524 0.296280 -0.001819 -0.471468 0.304725 -0.120841 0.190361 0.207477 0.007870 0.170586 -0.118902 -0.325041 -0.100856 -0.330640 0.191251 -0.168896 0.340493 -0.021208 0.129300 0.207840 0.266987 0.396137 -0.244089 0.114947 0.123660 -0.599842 0.315035 -0.547756 -0.122853 0.315852 -0.281979 0.197463 0.021436 0.043989 0.504186 -0.475504 -0.262216 0.100059 0.169169 -0.416850 0.225548 0.419970 -0.042764 -0.496657 -0.163727 0.595549 -0.052511 -0.193004 -0.047904 -0.470913 0.116975 0.692916 -0.106605 -0.558358 -0.055494 -0.167925 -0.288814 0.096361 -0.302608 -0.369601 -0.350637 -0.313310 0.216815 0.465679 0.133205 0.487410 -0.557208 0.089204 -0.085407 -0.600223 -0.486160 0.309176 0.472227 0.298567 0.518242 0.258816 -0.200031 0.064812 0.258463 -0.222936 0.226892 0.232276 0.063285 -0.019874 -0.641389 -0.435340 0.248569 0.207663 0.660782 0.513091 -0.552686 -0.271375 -0.159526 
f879 0.507167 0.268739 0.302519 0.317367 -0.076582 0.340437 0.157193 0.220648 -0.201862 0.008352 0.367505 0.168389 -0.087339 -0.376810 0.203181 -0.142380 0.330113 -0.447389 -0.424962 -0.076306 0.212769 -0.129749 0.283896 -0.318806 -0.522426 -0.428921 -0.396373 -0.169247 -0.722189 -0.484057 -0.261750 -0.140726 -0.066424 0.720091 -0.505588 0.047914 0.393347 -0.008595 -0.391751 -0.221881 0.108221 -0.043088 0.225056 -0.103209 -0.007131 0.260038 0.055541 0.188555 -0.564528 -0.183544 -0.274016 0.356294 0.097141 -0.149639 -0.298046 0.136399 0.593797 -0.186190 0.242829 0.031305 -0.421572 0.181940 -0.366112 -0.423891 0.752725 -0.505630 0.106918 0.377962 0.133095 0.029062 -0.304807 -0.084027 0.139811 0.227280 -0.523985 0.225480 0.496678 -0.135288 -0.264727 0.016421 0.523931 -0.090973 -0.210723 -0.239426 -0.477984 -0.000304 0.987957 0.145641 -0.552979 -0.203625 0.062512 -0.492169 0.228560 0.233964 -0.012470 -0.047384 -0.255381 0.079989 0.420703 0.213880 -0.070739 -0.714594 -0.283627 0.189109 -0.620097 -0.515563 0.053986 0.298315 0.539585 0.435041 -0.030119 -0.327871 0.086370 0.140014 -0.285715 -0.033865 0.184813 0.097327 0.053722 -0.597738 0.049836 0.172183 0.307956 0.379614 0.507249 -0.374511 -0.593396 0.050811 
f886 -0.259753 0.184818 -0.090132 0.184527 -0.134789 0.250248 -0.092321 -0.181183 -0.138081 0.357875 0.237336 0.293653 -0.397489 -0.340891 0.209733 -0.008538 0.219291 -0.362132 -0.466827 -0.115470 -0.142566 -0.452053 0.077232 -0.231799 -0.613507 -0.368928 -0.600159 -0.408660 -0.478718 -0.163797 -0.045808 0.092772 0.034316 0.362303 -0.663845 0.073219 0.261355 0.745987 -0.634111 -0.009829 -0.314952 -0.158502 -0.230956 0.169423 -0.225221 -0.402924 -0.036970 -0.003880 -0.454167 0.092288 -0.603951 0.581489 0.160603 0.124715 0.007788 0.199805 0.015168 -0.019545 -0.014287 0.110093 -0.273639 0.327419 -0.459765 -0.211566 0.499415 -0.222787 -0.196673 0.169228 0.155306 0.369687 -0.393766 -0.664005 -0.064622 0.301321 -0.506822 0.162506 0.425559 0.097884 -0.370752 -0.376050 0.772334 -0.150283 -0.320788 -0.530648 -0.459983 0.128347 1.133306 -0.035303 -0.408278 -0.068462 0.234642 -0.343331 0.007852 -0.061289 -0.102029 -0.160792 -0.059433 -0.356577 0.361910 0.055741 0.170042 -0.942455 -0.247555 0.028175 -0.357368 -0.251608 0.227078 0.344346 0.365269 0.320665 0.350539 -0.073341 -0.068968 -0.223281 -0.511931 -0.139607 0.088832 0.274351 0.123144 -0.394005 0.094186 0.259599 0.262068 0.719167 0.373082 -0.309440 -0.233311 -0.260223 
f929 0.245840 -0.162825 -0.121842 -0.158253 0.126038 0.219049 -0.131150 0.230821 -0.017655 -0.074403 -0.008477 -0.242569 -0.005608 -0.184689 0.194066 -0.445260 0.057230 -0.030860 0.174718 -0.137001 0.227904 -0.291357 0.302188 0.322769 0.063827 -0.597079 -0.114247 -0.431184 0.032471 -0.059207 0.106806 0.136047 0.074468 0.323990 -0.172853 0.098701 -0.100052 -0.348227 -0.464948 0.278666 0.330874 0.152088 0.201485 -0.084796 0.333638 0.365604 -0.088802 0.343408 -0.128869 0.078723 -0.407517 0.252193 -0.253304 -0.381800 0.433747 -0.286171 -0.032528 -0.092923 -0.048518 -0.133866 -0.058989 0.666476 -0.271364 0.260740 0.316295 -0.222977 -0.026777 0.067625 0.280861 -0.504626 0.175992 -0.423071 -0.194482 0.195276 -0.210390 -0.005643 0.050578 -0.031953 -0.176084 -0.276173 0.093235 0.049736 -0.181231 0.093546 -0.480829 -0.312021 0.045053 -0.216904 -0.758846 0.102018 -0.449928 -0.568168 -0.000709 0.452468 -0.405359 -0.322134 0.002080 0.045718 0.015497 -0.036969 0.327000 -0.432252 -0.041289 0.243597 0.436634 -0.374260 -0.354929 -0.427026 -0.308049 0.024338 0.451332 -0.005325 0.011682 -0.000834 -0.240419 0.223686 -0.088329 0.071596 0.024141 0.332088 -0.449104 0.089890 0.483800 0.200839 -0.261123 -0.081959 0.336105 0.131319 
f898 0.214263 -0.369732 0.043547 -0.014211 -0.134766 0.073353 0.125018 -0.085629 -0.160381 0.119517 -0.071071 -0.227428 0.016144 0.026998 -0.300334 -0.126619 0.387964 0.066124 0.100134 -0.190110 0.396016 -0.240118 0.152468 0.244970 -0.044285 -0.634116 -0.164062 -0.184749 -0.363195 0.256733 -0.209421 0.082645 -0.123334 -0.133219 0.105218 -0.008746 -0.152073 -0.288863 -0.342581 0.205039 -0.242497 -0.072601 0.449363 -0.310763 0.328907 0.215550 -0.121393 0.105844 -0.309334 -0.075721 -0.306633 0.317042 0.200525 -0.300591 0.316428 -0.552048 0.344626 0.145016 -0.214176 -0.237179 -0.057583 0.496934 -0.428958 0.086550 0.354479 -0.001034 0.207006 0.009352 0.227491 -0.207380 0.399700 -0.334661 -0.390165 0.006890 0.073329 0.055905 0.222471 -0.063203 -0.166782 -0.536939 0.303366 -0.112992 -0.449568 -0.087028 -0.598092 -0.352498 0.036230 -0.454531 -0.887243 0.073406 -0.241716 -0.335975 -0.197764 0.236021 -0.357466 -0.154418 -0.000451 -0.085562 0.224165 0.229366 0.280797 -0.371582 -0.042039 0.158285 0.196033 0.081148 -0.393177 -0.098974 -0.427930 0.198866 0.089640 -0.191316 -0.126234 0.118802 0.046644 -0.018135 -0.063102 -0.008338 0.123308 -0.147557 -0.301292 0.324154 0.290936 0.087071 0.062391 0.117049 0.470807 0.105201 
f891 0.466624 -0.065502 0.051900 0.141677 0.173509 0.036489 0.013428 -0.110720 0.039015 0.048699 -0.057233 -0.045506 0.019739 0.092140 -0.082484 -0.388105 0.408871 0.044947 0.165612 0.029215 0.044949 -0.404853 0.222796 0.342382 -0.023948 -0.663095 0.162861 -0.404252 -0.294901 -0.241264 -0.062882 -0.010218 0.224209 0.280233 -0.001692 -0.039742 0.225835 -0.243504 -0.357717 0.251878 0.128887 0.064005 0.303023 -0.394483 0.063122 0.290791 -0.312003 0.164710 -0.081492 -0.166829 -0.397759 0.283808 -0.047272 -0.194950 0.144414 -0.298122 0.005635 0.239714 0.044942 -0.416909 -0.031002 0.429272 -0.646201 0.084030 0.321814 -0.022368 0.154758 -0.106901 0.237876 -0.356324 0.279025 0.091911 -0.043765 0.190504 0.099901 -0.503591 -0.110307 -0.290002 0.214479 -0.283682 0.027958 -0.196958 -0.524893 0.155913 -0.446715 -0.175037 0.137981 -0.344021 -0.525674 0.097896 -0.120814 -0.263845 0.015542 0.425497 -0.251694 -0.461323 0.257215 -0.067511 0.518422 0.230486 0.255037 -0.526359 -0.065696 0.187092 0.153339 -0.061578 -0.319161 -0.088700 -0.541198 0.402747 0.347602 -0.158963 0.021197 -0.021697 0.051661 0.199067 -0.151973 0.166773 0.010781 0.396974 -0.281303 0.426377 0.174289 0.094360 -0.259229 -0.370330 0.154234 0.155221 
f923 0.056325 0.140058 -0.050620 0.102220 0.144329 0.068370 0.025177 -0.061957 -0.079874 -0.129836 -0.473783 -0.301063 0.096363 -0.188054 0.081905 -0.338270 0.182587 -0.411230 -0.050352 -0.046927 0.133172 0.323276 0.049693 0.530737 -0.120539 -0.761611 -0.107528 -0.429361 0.147487 -0.002512 -0.341140 -0.136130 0.164002 -0.074655 -0.334512 -0.041381 0.023361 -0.497878 -0.337594 0.055814 0.020559 0.260981 0.304699 -0.264891 0.036738 -0.189798 -0.129180 0.092042 -0.189892 -0.226219 -0.688097 0.243891 0.211704 -0.254340 0.404463 -0.358704 0.034802 0.152575 -0.095198 -0.376781 -0.091773 0.530382 -0.343225 0.067537 0.057475 -0.171243 0.290351 -0.067821 0.271927 -0.210898 0.374332 -0.459087 -0.182901 0.004778 -0.177712 -0.036639 -0.020572 -0.107762 -0.244956 -0.249166 0.305998 -0.044724 -0.301380 0.467247 -0.476269 -0.036598 0.272117 -0.248856 -0.668176 0.083921 -0.132023 -0.347228 -0.242388 0.526485 -0.297867 -0.293607 0.123386 -0.117381 0.216013 0.296075 0.281132 -0.408225 -0.234769 0.310858 0.423251 -0.212460 -0.067246 -0.196260 -0.192198 0.274721 0.005383 -0.264614 -0.001899 -0.008315 -0.010396 0.173904 -0.156945 -0.025178 0.509365 0.339147 -0.529925 0.326334 0.344949 0.027266 -0.105041 0.046882 -0.199723 -0.080661 
v1665 -0.360851 -0.486961 -0.023845 0.266549 -0.305101 -0.462446 -0.851139 -0.515286 0.681300 -0.206167 0.415271 0.767842 -0.104604 -0.281584 0.146202 0.284495 -0.227894 1.029967 -0.031382 -0.406691 0.412150 -0.064954 -0.232699 -0.340907 -0.627846 0.248206 -0.347450 -0.192587 0.083945 -0.607949 -0.508028 -0.098628 -0.147794 -0.413826 0.228288 -0.172146 -0.006530 -0.408831 -0.031349 0.315330 -0.190913 0.558999 -0.017254 -0.038934 -0.098759 -0.107928 -0.483056 -0.189002 -0.072627 0.518311 -0.078364 -0.210523 -0.295755 -0.026064 0.177796 0.180760 -0.228950 -0.298533 0.138668 0.231229 -0.471816 0.241822 -0.429214 -0.021313 -0.560085 0.288773 0.144694 0.156348 0.083045 0.583812 -0.169691 0.252354 -0.035189 0.059679 0.192485 0.164370 -0.016273 -0.282849 -0.058526 0.064179 0.061976 0.232287 0.155964 -0.082512 -0.171116 0.049891 -0.058859 -0.110660 0.903381 0.346575 -0.730971 0.387747 0.284058 0.147741 -0.498096 -0.303756 -0.633667 0.568677 0.190395 0.296437 -0.385000 0.617424 0.108252 0.304950 -0.218425 -0.185848 -0.467444 0.397516 0.139228 -0.150746 -0.052159 -0.214522 0.318820 0.316120 0.547503 0.725404 0.448448 -0.503835 -0.093089 -0.235724 -0.445578 0.026795 -0.459763 -0.382087 0.432543 -0.526634 0.374367 0.238170 
f905 0.274785 -0.094591 0.018257 -0.138239 0.162891 -0.062004 0.143300 0.010401 -0.011325 0.069410 -0.120649 -0.319292 -0.049047 0.132718 -0.252930 -0.458493 0.216448 0.133575 0.062671 0.263411 0.032165 -0.202999 0.316257 0.125470 -0.036616 -0.575181 -0.417441 -0.335321 -0.082275 -0.014536 -0.248739 0.234857 0.543251 0.206812 -0.123352 0.118022 -0.050200 -0.416576 -0.688575 -0.032442 0.210314 0.078766 0.118538 -0.270794 0.524231 0.264741 -0.288579 0.311311 0.029935 0.010788 -0.646349 0.352945 0.050200 -0.009324 0.542726 -0.558248 -0.027629 -0.052841 -0.079685 0.019495 -0.306442 0.368985 -0.392399 0.177223 0.381854 0.050012 0.378224 -0.223161 0.182768 -0.232894 0.258923 -0.292089 -0.140227 0.127944 -0.426746 -0.077968 -0.090421 -0.105473 -0.324731 -0.513592 0.240705 -0.362075 -0.512621 0.119128 -0.213974 -0.088977 0.254574 -0.338799 -0.699035 0.146991 0.033898 -0.177811 -0.299521 0.208373 -0.105523 -0.266748 0.037287 0.010522 0.250290 0.368098 0.227516 -0.190092 -0.126668 0.337832 -0.085428 0.148709 -0.282166 -0.390202 -0.200637 -0.112747 0.166558 -0.218570 -0.093852 -0.003644 0.232708 0.144309 -0.122467 0.285856 0.215510 0.161385 -0.265392 0.133526 0.250290 0.293257 -0.259702 -0.060752 0.141539 -0.059369 
f889 0.105520 -0.298725 0.002039 0.169430 0.259887 0.020215 0.234805 0.187488 -0.197495 0.099015 -0.546656 -0.260022 0.120224 -0.371247 0.198430 -0.305303 0.416902 0.202989 0.446108 0.051417 0.113077 -0.015592 0.080287 0.351791 0.025552 -0.807171 -0.081503 0.065270 -0.166506 -0.203077 0.038212 0.120852 0.146969 0.411386 -0.194290 -0.129611 -0.188709 -0.366225 -0.474229 -0.183506 -0.134347 0.071095 0.178252 -0.071865 0.405727 0.110934 -0.168434 0.285169 -0.383953 -0.123130 -0.365578 0.289427 -0.021914 -0.046812 0.433114 -0.487403 0.239740 0.131259 0.042887 0.007580 -0.239401 0.504005 -0.288776 0.084649 0.276841 -0.245726 0.233124 -0.026773 0.369620 -0.318215 0.715204 -0.174861 -0.098730 -0.052713 -0.230042 -0.216684 0.110006 -0.033546 -0.198351 -0.393783 0.150445 -0.354830 -0.648775 0.278105 -0.329626 0.160814 0.204036 -0.202754 -0.475315 0.129076 -0.188033 -0.189879 0.111133 0.167871 -0.245620 -0.232338 -0.002743 0.233777 0.305829 0.332809 0.038592 -0.485162 0.128216 0.185619 0.354750 -0.247390 -0.251426 -0.139879 -0.332184 0.031846 0.214868 -0.119543 0.239829 0.056659 -0.249209 0.088400 -0.443817 0.074661 0.197239 0.057658 -0.427261 0.106362 0.217712 0.042767 -0.041617 0.041173 0.211764 -0.006129 
f902 0.269643 -0.048479 0.053139 -0.036649 -0.053322 -0.036158 -0.029340 -0.168260 0.272016 0.161864 -0.374720 -0.010864 -0.049158 -0.162405 -0.129550 -0.329568 0.403558 -0.183671 0.408442 0.160325 0.161182 -0.222866 0.296937 0.216082 0.151476 -0.621886 -0.098428 -0.167250 0.036504 -0.174520 -0.173150 -0.098377 0.336965 0.024206 -0.078889 -0.205323 -0.190045 -0.310550 -0.333208 0.267249 0.050953 0.311177 -0.055580 -0.218075 0.285771 0.133721 -0.142346 0.379391 -0.056285 -0.359844 -0.418028 0.201576 0.253493 -0.280472 0.360969 -0.374408 -0.022683 -0.023950 -0.224623 -0.172961 -0.272083 0.574782 -0.753876 0.158345 0.247922 -0.161078 0.094528 0.153120 0.230331 -0.116251 0.323787 -0.008644 -0.098535 0.193368 0.015488 0.206889 0.192651 0.047721 -0.411931 -0.391195 0.399973 -0.307272 -0.335430 0.089782 -0.420839 -0.493136 0.312083 -0.127342 -0.449186 0.006475 -0.274158 0.351407 -0.130036 0.399732 -0.363258 -0.568482 -0.144911 -0.209241 -0.086773 0.369240 0.246079 -0.539568 -0.001175 0.161912 0.244870 -0.027214 -0.283085 -0.270593 -0.242089 0.254047 0.144163 -0.200129 -0.046111 0.032055 -0.364591 0.121627 -0.088783 0.028828 0.144911 0.207368 -0.303341 0.077186 0.304669 0.094821 -0.172667 -0.124401 0.098629 0.235151 
f899 0.179954 -0.260283 -0.229471 0.040518 0.322173 0.115604 0.159583 0.060709 0.015068 0.068395 -0.337566 -0.038291 0.101888 0.072998 -0.130562 -0.433958 0.281847 0.037845 0.349430 -0.111030 0.128344 -0.220036 0.198510 0.315765 0.101260 -0.578329 -0.139470 -0.345871 -0.071111 -0.052330 -0.335375 0.072992 0.082520 0.259714 -0.065501 -0.025745 -0.050431 -0.163527 -0.434419 0.385559 -0.279337 -0.154714 0.035701 -0.075537 0.466606 0.162379 -0.226598 0.161763 -0.038883 -0.284074 -0.649396 0.283879 0.131163 -0.407270 0.261068 -0.395808 0.222900 0.037040 0.021155 0.019867 -0.266708 0.547732 -0.375784 0.097971 0.205183 -0.130110 0.044283 -0.043063 0.119159 -0.435197 0.220695 -0.286419 0.065830 0.013680 0.096953 0.032432 0.037401 0.058218 -0.155777 -0.457330 0.184463 -0.031953 -0.476803 0.054927 -0.158567 -0.502887 0.152438 -0.139867 -0.458980 -0.036180 -0.151533 -0.681879 -0.192196 -0.124400 0.048658 -0.337806 0.151033 -0.001350 -0.011961 0.317671 0.407216 -0.712394 -0.201776 0.405267 0.170964 -0.122911 -0.176157 -0.207241 -0.230589 0.153750 -0.027920 -0.462040 0.182749 -0.106957 -0.007027 0.049072 -0.061704 0.340035 0.352105 0.416759 -0.702549 0.231366 0.463634 0.068605 -0.268792 0.062668 -0.214556 0.253122 
f930 -0.044395 -0.348111 -0.009388 0.069162 -0.029663 0.202937 -0.032491 -0.079010 0.048021 -0.075428 -0.492518 -0.226960 0.115832 -0.096617 -0.155153 -0.047933 0.235791 -0.266354 0.205204 0.119505 0.334668 -0.161214 0.302722 0.351936 -0.073033 -0.852456 0.027557 -0.429324 -0.227929 -0.098983 -0.155049 0.090053 0.395151 0.170922 0.180233 0.003892 0.033425 -0.542348 -0.700137 0.273129 -0.082669 0.314047 0.176795 -0.363934 0.383262 -0.068629 -0.132096 0.119769 0.079984 -0.293765 -0.368731 0.201043 0.463953 -0.233451 -0.002727 -0.435135 0.054751 -0.061320 -0.045648 -0.271591 -0.325925 0.476492 -0.087827 0.013855 0.306575 -0.045184 0.039815 -0.206429 0.253313 -0.272638 0.000715 -0.194354 -0.231565 0.047641 0.026222 0.138323 -0.081333 -0.261024 -0.202225 -0.308207 -0.107896 -0.231000 -0.649105 0.407227 -0.472623 0.044138 0.210481 -0.184824 -0.731885 0.091457 -0.336329 -0.255521 -0.028246 0.212473 -0.089772 -0.375530 0.131917 0.347588 0.125509 0.198312 0.136338 -0.410159 -0.026973 0.237443 0.376762 0.076158 -0.376568 -0.165962 -0.121433 0.190217 0.203975 -0.157388 -0.109969 -0.023590 -0.242186 0.129208 -0.320112 -0.093883 0.266011 0.519014 -0.475896 0.363029 0.320932 0.139446 -0.036852 -0.110389 0.219026 -0.159509 
f908 0.218867 -0.101992 0.162654 -0.078532 0.111239 0.077372 0.153492 0.062543 0.410459 0.041347 -0.581206 -0.172056 -0.016988 -0.153795 0.130726 -0.251720 0.313170 -0.040164 0.153923 0.258853 0.297317 -0.185153 0.206423 0.082412 0.038741 -0.725570 -0.422459 -0.369389 -0.225856 -0.036798 -0.035303 0.263124 0.340280 0.041423 -0.152433 0.004944 -0.224620 0.013263 -0.402549 0.275538 -0.066729 0.061514 0.340165 -0.098186 0.061456 -0.016329 -0.033091 0.273515 -0.027108 -0.025010 -0.403256 0.209586 0.110857 -0.354891 0.435571 -0.543527 0.132751 0.226197 -0.120115 -0.441816 -0.193042 0.662417 -0.798055 -0.156008 0.011211 0.214520 0.039986 -0.179869 0.103439 -0.472540 0.298452 -0.432294 -0.087451 0.345018 -0.093155 -0.149455 0.132278 -0.037171 0.009306 -0.313921 0.059097 -0.025436 -0.496940 0.356615 -0.228790 -0.328716 0.240449 -0.061057 -0.596166 0.217242 -0.130051 -0.453004 0.039647 0.292416 -0.203846 -0.173243 -0.104415 0.098528 0.224545 0.071355 0.090370 -0.542511 0.185341 0.366027 0.201230 -0.056518 -0.098188 -0.083664 -0.302843 -0.026335 0.233193 0.114244 -0.028856 -0.160067 0.153876 0.159605 -0.253455 0.052654 0.221395 0.195317 -0.294301 0.657185 0.245342 0.140066 -0.234880 -0.112480 0.182017 -0.016914 
f907 0.181918 -0.204584 -0.052453 0.014464 0.171776 -0.075459 -0.022586 -0.090868 -0.037728 0.318734 -0.115897 -0.033996 0.058915 -0.199210 -0.116969 -0.295208 0.006997 -0.155007 0.381129 -0.002220 -0.011454 -0.031307 0.534579 0.179820 0.125586 -0.762589 0.142656 -0.288367 -0.196824 -0.097821 -0.103371 0.268202 0.013690 0.330864 -0.274509 -0.200938 0.073716 -0.191302 -0.458904 0.135783 -0.042012 -0.077693 0.587151 -0.547932 0.414979 -0.044419 -0.136314 0.383496 0.020850 -0.123628 -0.403180 0.515421 0.247597 -0.512467 0.495550 -0.443387 0.209086 -0.026756 0.287881 -0.147628 -0.256389 0.409744 -0.335039 -0.112936 0.165113 -0.089318 -0.349254 -0.208234 -0.007977 -0.355192 0.334570 -0.107069 -0.301206 0.244102 -0.222907 -0.037109 -0.054701 0.020241 -0.364564 -0.277606 0.081160 -0.124921 -0.352548 0.115819 -0.451142 -0.175034 0.045786 -0.235358 -0.529735 0.560926 -0.065847 -0.503238 -0.271344 0.390205 -0.319537 -0.382970 -0.142092 0.137163 0.389197 -0.038307 0.396363 -0.339553 0.118546 0.123650 0.260875 -0.124871 -0.479069 -0.206936 -0.225540 0.169411 0.062437 -0.199775 0.253115 -0.149517 0.019552 0.083807 -0.253201 -0.088763 0.292930 0.051058 -0.182349 0.399209 0.173311 0.270799 0.024259 0.051021 0.097614 0.174971 
f866 0.129972 0.712415 0.144171 -0.302840 0.666609 0.035712 -0.027803 0.387735 0.385796 0.131205 0.030076 0.309853 -0.296893 -0.387075 0.660294 -0.601187 0.503875 -0.094207 -0.283900 0.015311 0.284693 -0.743520 -0.296889 0.548911 -0.123025 -0.702899 -0.343631 0.109047 0.334600 -0.556651 -0.660120 0.063798 -0.238414 0.067754 -0.214483 0.041891 -0.176350 -0.699960 -0.564566 0.728056 0.205301 -0.672584 -0.380942 0.214611 -0.010042 -0.488958 -0.122403 0.126806 0.028765 -0.336460 -0.087514 0.543514 0.026266 -0.305612 0.072536 0.401250 -0.103133 -0.654631 0.065311 -0.213957 -0.859113 0.255610 0.093872 0.026143 0.863364 -0.609711 0.219105 -0.339446 -0.057747 0.687790 0.027372 -0.614323 0.229359 0.272367 0.219366 0.636837 0.274399 0.311472 -0.403756 0.817402 0.145214 -0.530941 -1.641334 0.002969 -0.357954 0.501305 0.882312 -0.684954 -0.761098 -0.583046 -0.168543 -0.306194 -0.453716 -0.137116 0.054336 -0.378086 0.298288 -0.353885 0.534891 0.214525 0.339780 -1.218287 0.072508 0.115422 0.027110 -0.448232 -0.733840 0.559102 0.168626 0.195009 0.312520 -0.601762 -0.045578 0.537698 -0.193322 -0.412162 0.019831 0.069938 0.317301 -0.685891 -0.182455 0.177418 -0.045489 0.199384 0.724841 -0.335504 -0.335926 0.256214 
v1644 -0.624105 0.312462 0.280498 0.155095 0.285954 -0.774752 -0.209066 -0.439510 0.473211 0.424502 0.003410 -0.245435 -0.072717 -0.113869 -0.080234 -0.065796 0.092021 1.415410 0.241315 -0.147847 0.628561 0.060558 -0.379698 0.223436 -0.237708 0.008744 -0.391305 0.328845 0.286939 -0.582165 -0.744504 0.144180 -0.284493 -0.300254 0.339372 -0.075464 -0.503114 0.110274 0.065466 0.389354 0.324622 -0.145281 -0.088719 -0.076122 -0.045520 -0.308520 -0.271442 0.059328 -0.334537 0.259947 -0.423784 -0.216560 0.218932 -0.156571 0.115809 0.027533 -0.108604 0.255280 0.192317 0.078988 -0.596945 -0.012126 -0.189904 0.076101 0.103115 -0.047147 0.254064 0.132444 -0.249875 0.379841 0.219291 0.173381 -0.226177 -0.268526 0.154760 0.206591 -0.433200 -0.223161 0.076530 0.235571 0.218525 0.258766 0.474337 -0.677693 -0.055855 -0.372277 0.034928 -0.406869 0.848930 0.391769 -0.168492 0.066315 -0.228381 0.407369 0.175330 0.130378 -0.156435 0.366791 0.030391 -0.107398 -0.654458 0.205615 0.344531 0.564579 -0.368018 0.083681 -0.798508 0.337709 0.026435 -0.680468 0.066636 -0.142826 0.268002 0.187143 0.000096 0.280220 0.555254 -0.175822 0.290312 0.387377 -0.340146 -0.027216 -0.213528 -0.084244 -0.263321 -0.458395 0.064707 0.409081 
v1636 -0.103689 0.051135 -0.200799 0.409073 0.398822 -0.291481 -0.553773 -0.161700 -0.273558 0.253622 0.316771 0.540071 0.170307 0.425508 0.026761 -0.186102 -0.039390 1.530898 0.235163 0.060945 0.639363 -0.302993 0.296185 0.044934 0.033174 -0.038871 0.152466 0.266527 0.607466 0.252399 -0.263926 -0.109746 -0.392877 -0.147289 0.340775 -0.082676 0.085196 -0.548638 0.354399 -0.012408 -0.312978 0.465086 -0.028336 0.375951 -0.255090 0.041794 0.136447 0.032751 0.394351 0.209784 -0.175694 -0.316051 0.074536 -0.206727 -0.175834 0.006252 -0.494544 -0.007290 -0.108471 -0.478843 -0.157084 -0.203259 -0.009972 -0.486079 -0.600662 -0.062618 -0.065725 0.129870 -0.180178 0.164840 0.021024 0.161517 -0.044890 -0.130951 -0.375542 -0.057263 -0.445180 -0.652837 0.577015 0.184022 -0.284716 0.263818 -0.181850 0.138339 -0.242628 -0.062585 0.030817 0.006709 0.836571 -0.147927 -0.466548 0.400865 -0.052234 0.265359 -0.097475 0.504958 0.215009 0.322229 -0.652006 0.359477 0.001811 0.117291 0.093829 -0.133669 0.114234 0.195086 -0.422399 -0.012521 -0.041375 0.017377 -0.158030 -0.084779 -0.318815 0.154303 0.459903 0.290140 0.031850 -0.422176 -0.640161 -0.329088 -0.336612 -0.020984 -0.161276 0.041878 -0.087793 0.051841 -0.122985 0.324454 
f916 0.148138 -0.276741 -0.081719 0.213455 0.153116 -0.152799 0.102292 -0.033268 0.212183 -0.075253 -0.365005 -0.205373 -0.005763 0.084442 -0.079247 -0.482808 0.489207 0.037021 0.293070 -0.072371 0.384623 0.014430 0.530201 0.476071 -0.013454 -0.643794 -0.185976 -0.107683 -0.149295 -0.082970 0.026684 0.017365 0.056621 0.210233 -0.210279 0.019948 -0.302719 -0.193863 -0.691536 0.124603 0.040691 0.128552 0.190083 0.033048 0.110438 0.110848 0.009569 -0.060636 0.438667 -0.219377 -0.339279 0.396535 0.010244 -0.245026 0.453807 -0.449704 0.090714 -0.033812 -0.007100 -0.223540 -0.129630 0.324643 -0.309188 0.042758 0.570282 -0.080713 0.149816 -0.122347 0.382158 -0.034932 0.261194 -0.303524 0.046173 0.278195 0.052379 -0.190715 -0.023334 0.473552 -0.279503 -0.281600 0.096561 -0.311461 -0.252582 0.314278 -0.488202 -0.376080 0.012627 -0.295279 -0.564157 -0.023722 -0.172094 -0.258304 -0.061029 0.287485 -0.365127 -0.494711 -0.179656 0.092245 0.270019 0.203212 0.332326 -0.528787 0.119655 0.202786 0.102922 -0.348827 -0.227830 0.085532 -0.478678 0.078974 0.268294 -0.246966 0.008151 -0.130325 -0.056972 -0.074912 -0.135832 0.273036 0.607954 0.146614 -0.541552 0.233050 0.143230 0.029250 -0.086383 -0.259711 0.331555 -0.175469 
f909 0.061594 -0.120397 0.259913 0.280575 0.058996 0.108302 -0.009028 0.178700 0.101737 0.278661 -0.048608 -0.198689 -0.183051 0.116752 -0.053863 -0.304589 0.031023 -0.057324 0.358644 0.071334 0.177851 -0.118973 0.380440 0.182015 0.287287 -0.572614 -0.033953 -0.124785 0.023802 -0.298543 -0.065606 0.220532 0.281843 0.222647 -0.113044 -0.146030 -0.034487 -0.275003 -0.318275 -0.044065 -0.127378 0.106138 0.119354 -0.298939 0.325573 0.130859 -0.130739 0.226322 0.060388 -0.130367 -0.344593 0.661722 0.217412 -0.220721 0.180274 -0.152094 -0.245462 0.115105 0.215476 -0.258979 -0.330552 0.650079 -0.216670 0.052534 0.254349 -0.031052 0.084170 0.007554 0.247426 -0.441182 0.262911 -0.506568 -0.157294 0.052494 -0.393267 -0.012833 0.105480 -0.237211 -0.193767 -0.497196 0.401930 -0.231427 -0.604856 0.052656 -0.309213 -0.121911 0.204642 -0.368371 -0.592998 -0.099798 -0.225898 -0.168866 0.085351 0.184481 -0.551050 -0.277426 0.144423 0.204649 0.068567 0.404173 0.251163 -0.419131 -0.049894 0.233923 -0.077649 -0.031101 -0.294778 -0.164971 -0.588805 0.240073 0.011220 0.106980 0.174775 -0.098545 -0.164801 -0.090060 -0.164928 0.203615 0.383247 0.431858 -0.322484 0.237514 0.407643 0.132488 -0.415504 0.190224 0.296575 0.232379 
f895 0.243604 0.008815 0.046051 -0.113054 0.176489 0.117658 0.079128 0.138577 0.097362 -0.108977 -0.334824 -0.231377 -0.103664 -0.191093 0.089104 -0.430881 0.409957 0.109333 0.283157 0.125563 -0.035980 -0.202764 0.283212 0.245619 -0.101182 -0.620473 -0.142907 -0.355719 0.093055 -0.196047 0.236986 0.438148 0.377164 0.109224 0.077089 -0.208606 -0.153988 -0.147022 -0.617938 0.256716 0.086197 -0.213983 0.118205 -0.108277 0.334537 0.209703 -0.069476 0.213265 0.057742 0.079221 -0.457852 0.379425 0.205403 -0.605230 0.511998 -0.312446 0.174550 0.123874 -0.087974 -0.151419 -0.319391 0.583490 -0.281972 -0.206664 0.344228 -0.071844 0.043498 -0.151622 0.223595 -0.064397 0.275430 -0.095112 -0.402333 0.160620 -0.001915 -0.196695 -0.039804 -0.307976 -0.111894 -0.311726 0.330339 0.048112 -0.440815 0.290194 -0.530173 -0.296024 0.017762 -0.369066 -0.544632 -0.254680 -0.164371 -0.203316 -0.048241 0.082860 -0.517209 -0.110326 -0.061287 0.036228 0.266493 0.380455 0.616464 -0.086449 -0.156662 0.391130 0.198948 -0.105652 -0.315882 0.023736 -0.084161 0.167376 0.193614 -0.482808 0.078775 0.087688 -0.037069 0.058975 -0.115508 0.008956 0.003563 0.209785 -0.489298 0.256989 0.003196 0.218626 -0.319650 -0.030185 0.091582 0.015562 
f903 0.006006 0.046765 0.061546 0.037963 0.060387 0.026857 0.248636 0.035417 -0.138220 0.121655 -0.369121 -0.162480 0.287402 -0.253823 -0.054428 -0.263500 0.307689 -0.139032 -0.012691 0.056876 0.193300 -0.351317 0.345709 0.152853 -0.039464 -0.687172 -0.127944 -0.276959 -0.226721 0.035397 0.040800 0.246689 0.308534 0.223613 -0.108212 -0.296757 0.106552 -0.236332 -0.152789 0.387507 -0.176832 0.074311 0.352795 -0.355458 0.422263 0.357563 0.032309 0.301174 -0.132201 -0.115112 -0.484703 0.442643 0.311330 -0.015401 0.322067 -0.540477 -0.267888 0.104420 0.129738 0.085070 0.179923 0.345909 -0.402277 0.070415 0.433793 -0.106736 0.253812 -0.071732 0.489683 -0.353767 0.359211 -0.488347 -0.349477 0.177620 0.037819 0.186602 -0.010271 -0.076980 -0.272935 -0.091794 0.127751 -0.285436 -0.569993 -0.020134 -0.282685 -0.282168 0.341756 -0.574563 -0.510674 0.081896 -0.085527 -0.198442 -0.123614 0.328234 -0.272439 -0.131672 0.167032 0.046342 0.060989 0.234329 0.296142 -0.389102 -0.203831 0.228060 0.547964 -0.123872 -0.086539 -0.014152 -0.256225 -0.132667 0.140804 -0.307106 -0.377616 -0.304737 -0.198852 0.255360 -0.385097 -0.121408 0.141887 0.246298 -0.625730 0.171773 0.090496 0.171211 -0.193742 -0.209064 0.259684 0.061501 
f910 0.240183 -0.194563 0.105745 -0.116792 0.081919 -0.067224 0.021271 0.183730 0.088648 -0.013875 -0.335054 -0.400012 0.148763 -0.116487 -0.033201 -0.286363 0.254567 0.019971 0.435488 0.073771 0.316686 -0.186983 0.236775 0.244578 0.070452 -0.822559 0.110226 -0.600510 -0.345010 -0.271026 -0.207328 0.023682 -0.141074 0.305184 0.085629 -0.276936 -0.001580 -0.264433 -0.078581 0.084840 0.121291 0.222823 0.069220 0.026701 0.066465 0.198624 -0.212235 0.329070 -0.203889 -0.152893 -0.488399 0.219040 -0.056851 -0.382096 0.241852 -0.373734 0.064506 0.012245 0.057660 -0.046411 -0.277776 0.370358 -0.563526 -0.030044 0.509763 -0.021763 -0.058023 -0.151162 0.060235 -0.051015 0.317543 -0.311077 -0.007988 0.256892 -0.033559 -0.239099 0.194479 0.047636 -0.317027 -0.487793 0.047284 -0.280095 -0.615000 0.320970 -0.232132 -0.196827 0.195344 -0.391615 -0.660610 0.155548 -0.120557 -0.217454 -0.025257 0.186877 -0.446521 -0.343746 0.154337 -0.199234 0.240412 0.352839 0.230969 -0.090801 -0.338427 0.334689 0.340115 -0.186329 0.071321 -0.226165 -0.264232 0.176688 -0.075989 0.109101 0.317770 -0.187673 -0.249769 -0.017143 -0.122313 -0.072577 0.199616 0.272298 -0.224629 0.392641 0.406558 0.196660 -0.199291 -0.084843 0.450159 0.032622 
f896 0.305531 -0.087057 0.064648 0.081513 -0.130901 -0.126135 0.027479 -0.107484 0.053735 0.078089 -0.608100 -0.385968 -0.112513 -0.011973 -0.126267 -0.192539 0.317167 0.029332 0.438530 -0.102624 0.304361 -0.159391 0.291983 0.390008 -0.119174 -0.638059 -0.210516 -0.070545 -0.196403 -0.050225 -0.339099 0.275646 0.215166 0.066797 -0.108293 -0.155990 -0.177157 -0.165243 -0.701926 0.473128 -0.044027 0.360942 0.171270 0.003282 0.399945 0.054185 -0.306543 0.329449 -0.071541 0.143723 -0.430735 0.266975 0.323668 -0.279541 0.204487 -0.126555 -0.001638 -0.139537 -0.031861 -0.294787 -0.049016 0.526723 -0.267361 0.116828 0.080621 -0.115720 -0.174280 -0.286424 0.318037 -0.213073 0.383812 -0.046096 -0.198590 0.240927 -0.087016 -0.274096 -0.205195 0.069942 -0.418549 -0.254033 0.188998 -0.210071 -0.406072 0.183973 -0.201401 -0.059492 0.749997 -0.260011 -0.470318 0.154042 -0.129216 -0.342154 -0.052580 0.482470 -0.139671 -0.404904 0.130279 -0.226763 0.351507 0.193569 0.565542 -0.483037 -0.127207 0.059832 0.018259 -0.259662 -0.032598 -0.207132 -0.330562 -0.128343 0.087363 -0.392184 0.174347 -0.013532 -0.109626 0.058754 -0.134489 -0.105942 0.228967 0.312372 -0.411260 0.141368 0.030331 0.258953 -0.362077 -0.042070 0.223718 -0.022650 
f919 0.314859 -0.227080 -0.138106 -0.099648 -0.112011 0.229277 0.145793 0.101210 0.065672 0.325644 -0.095590 -0.304552 0.250385 0.056539 -0.431242 -0.468505 0.232541 0.011525 0.187500 0.023748 0.149448 -0.313046 0.198538 0.199624 0.174715 -0.804416 -0.087889 -0.153311 -0.036130 0.034520 -0.311362 0.244130 0.219808 0.370120 -0.060930 -0.179389 -0.135202 -0.407747 -0.513121 0.236436 -0.089918 0.252344 0.217132 -0.349945 0.043808 0.022901 -0.165657 0.288170 -0.009120 -0.081110 -0.087115 0.395396 0.016614 -0.244113 0.528571 -0.394827 -0.182112 0.077065 -0.073199 -0.204052 -0.068237 0.472702 -0.284803 0.258296 0.255536 0.034428 0.010828 -0.207392 0.039948 -0.030430 0.414699 0.074183 -0.389908 0.193404 0.008793 0.099397 0.078229 -0.002693 -0.264395 -0.339641 0.324569 -0.298825 -0.538927 0.121118 -0.277748 0.052300 0.303188 -0.146386 -0.430543 -0.030994 -0.033674 -0.379107 -0.075837 0.136639 -0.478277 -0.289869 -0.117261 0.179238 0.231925 0.375921 0.485182 -0.612267 0.093978 0.458331 0.374838 -0.121045 -0.224700 -0.342796 -0.504882 -0.031062 0.132337 0.042796 -0.235108 -0.252638 -0.248534 -0.178331 -0.317079 0.022920 0.070763 0.217884 -0.353547 0.591570 0.262126 0.227436 -0.258880 -0.082740 0.050747 -0.243817 
f890 0.454439 -0.195219 0.089409 -0.067495 0.127435 -0.076135 0.066551 0.100753 -0.285717 -0.163813 -0.365542 -0.132982 0.301671 -0.101338 -0.011159 -0.166499 0.063772 0.043711 -0.029813 -0.222584 0.024943 -0.001215 0.227800 0.183474 0.356302 -0.484509 -0.050346 -0.322963 -0.134726 -0.123198 -0.369724 -0.111917 -0.011236 0.252394 0.055923 -0.287915 -0.213689 -0.308937 -0.219535 0.153263 0.286411 0.126537 0.112945 -0.185360 0.268672 0.209008 -0.282355 0.265558 -0.000701 -0.222637 -0.231410 0.336930 0.079812 -0.231953 0.378968 -0.485029 0.025370 -0.141641 0.127499 -0.425330 -0.119621 0.531945 -0.303365 -0.154617 0.248373 -0.292463 0.041172 0.070450 0.220412 -0.262789 0.367350 -0.277932 -0.077680 0.214215 -0.120923 -0.331940 0.074781 0.072112 -0.334303 -0.442653 0.495077 -0.332027 -0.919195 0.147764 -0.294616 -0.151903 0.134591 -0.312676 -0.591601 0.157793 0.100979 -0.349017 -0.134089 0.272380 -0.265934 -0.148276 -0.122911 0.245147 0.072143 0.211291 0.343752 -0.485585 -0.180045 0.497293 0.253536 -0.381635 -0.448308 -0.264109 -0.403441 0.016001 0.328222 -0.203833 -0.205744 0.114685 0.012614 0.119567 0.115888 0.058103 0.416901 0.429678 -0.541761 0.145008 0.213581 0.079044 -0.120371 -0.080340 0.027941 0.060427 
f897 0.249088 0.239812 -0.063742 0.135704 0.140176 -0.038859 0.189232 0.049649 0.052419 0.043715 -0.318881 -0.073825 0.064037 0.115782 -0.196751 -0.158544 0.219843 -0.238541 0.250216 0.135954 0.043495 -0.184447 0.346817 0.146375 0.277123 -0.557025 -0.287541 -0.311806 0.218048 -0.280828 -0.214303 0.116915 0.255978 -0.034000 -0.215254 0.158237 -0.097564 -0.443169 -0.331864 0.205164 0.217774 0.015170 0.084772 -0.297979 0.186582 -0.020584 0.173400 0.264742 -0.232156 -0.147050 -0.508464 0.325273 -0.331229 -0.388045 -0.027866 -0.396092 0.232566 -0.216775 -0.006921 -0.454194 -0.186111 0.415176 -0.411722 0.096032 0.361696 0.022998 0.050433 -0.192441 0.344700 -0.341530 0.313056 -0.341136 -0.282312 -0.147205 0.056495 0.157327 0.060747 -0.153485 -0.298664 -0.176956 0.101713 -0.188173 -0.776713 0.199075 -0.613447 -0.302683 0.223944 -0.267585 -0.652456 0.017869 0.191630 -0.352548 -0.063157 0.174527 -0.308249 -0.267018 0.340029 0.202427 0.323002 0.284339 0.358085 -0.252956 -0.155978 0.432862 0.194472 -0.078386 -0.266138 -0.100926 -0.513484 -0.054367 0.124675 -0.133072 0.088465 0.086214 -0.254071 -0.113196 -0.240285 0.093005 0.290509 0.163410 -0.314029 0.240922 0.068352 0.119920 -0.251014 -0.200854 0.379334 0.104540 
f887 0.036493 -0.243569 0.205782 0.126562 0.102507 0.054608 0.012899 -0.182990 0.171842 0.109435 -0.174898 -0.092462 0.333720 -0.011983 0.224722 -0.180908 0.185069 -0.093811 0.270317 -0.019183 0.100016 -0.335860 0.080828 0.364888 0.099750 -0.689286 -0.422028 -0.168313 -0.157890 -0.166383 0.002662 -0.029218 0.351217 0.328112 -0.170729 -0.190079 -0.106453 -0.370338 -0.244050 0.153995 0.063917 0.225769 0.191989 -0.139055 0.586173 0.054371 -0.383895 0.231167 -0.154329 -0.247267 -0.267342 0.301163 0.228157 -0.473765 0.423839 -0.613989 -0.053323 0.119457 0.111848 -0.213954 -0.020146 0.455164 -0.571862 0.251155 0.369054 -0.097335 -0.078792 -0.186821 0.208468 -0.194285 0.295198 -0.463981 -0.033486 0.107125 0.147022 -0.370713 -0.099179 0.228896 -0.044575 -0.236907 0.493125 -0.210924 -0.562487 0.062972 -0.478822 -0.122225 0.241874 -0.389491 -0.479854 0.289893 0.012591 -0.169313 0.107678 0.212078 -0.023980 -0.476830 0.221446 0.201772 0.257769 0.171718 0.112065 -0.363955 -0.021185 0.211596 0.078448 0.136155 -0.132661 -0.311925 -0.278494 0.076405 -0.217178 -0.555460 -0.070321 -0.148452 -0.231955 -0.208751 -0.120400 -0.030515 0.063544 0.249108 -0.452023 0.326407 0.439495 0.293072 -0.093679 -0.168191 0.364280 0.183248 
f917 0.082306 -0.074644 0.187971 0.106521 0.092521 -0.136225 -0.031208 -0.021738 -0.021527 -0.015917 -0.318108 -0.325986 -0.160915 -0.090280 -0.184911 -0.457898 0.241752 -0.214415 0.026518 -0.124033 0.140012 -0.321588 0.436396 0.160597 -0.085072 -0.719064 -0.319969 -0.203220 -0.129921 0.160010 -0.358750 0.099838 0.155969 0.271298 -0.057673 -0.003703 -0.348294 -0.260413 -0.309615 0.395029 0.279196 0.046669 0.021135 -0.069167 0.291775 0.198143 -0.323154 0.476518 -0.107466 -0.057287 -0.436779 0.376938 0.252979 -0.474344 0.352419 -0.182080 0.258431 0.077342 -0.064183 -0.198753 -0.185019 0.388597 -0.610069 0.164602 0.316335 0.157280 0.028129 0.074525 0.075395 -0.214778 0.145626 -0.289176 -0.287544 0.011505 -0.066885 0.034163 0.057327 -0.035564 -0.401836 -0.352217 0.177666 -0.250647 -0.541396 -0.201155 -0.219978 -0.005529 0.170953 -0.477454 -0.406858 0.287332 -0.014553 -0.291071 -0.176792 0.391434 -0.649123 -0.317148 0.323832 0.186098 0.429271 -0.047374 0.256811 -0.676457 -0.283107 0.350301 0.378709 0.118741 -0.148917 -0.168199 -0.142297 0.234038 0.196921 -0.340168 -0.117675 -0.040437 -0.177266 0.092827 -0.336611 -0.066046 0.568754 0.430904 -0.137554 0.338134 0.029223 0.007447 -0.424780 0.004946 0.036544 -0.076423 
f901 0.090822 -0.275973 0.053604 0.151160 0.122100 0.129376 0.089760 -0.099839 -0.061972 0.225608 -0.273701 -0.246863 0.087592 0.268908 0.264206 -0.400552 0.458997 0.052510 0.020335 -0.035232 0.000822 -0.158252 0.370119 0.517786 -0.298444 -0.743564 -0.312572 -0.215675 0.143723 0.143413 -0.104318 -0.021546 0.018192 -0.058689 -0.284308 -0.430514 0.086242 -0.094301 -0.358542 0.054947 0.227610 0.072714 0.292812 -0.030801 0.534761 0.105522 -0.259975 0.173280 -0.093957 -0.241532 -0.195659 0.447494 0.107140 -0.516993 0.413170 -0.501619 0.114433 0.228357 0.131176 -0.078453 -0.255013 0.371436 -0.209919 0.150501 0.161861 0.054889 -0.146657 0.027317 0.182960 -0.209423 0.325742 -0.154389 -0.051488 0.337819 0.126579 0.018625 0.352801 -0.145967 -0.132501 -0.258046 0.161013 -0.209532 -0.419379 0.039103 -0.360597 -0.158361 0.546818 -0.306123 -0.689843 0.129663 0.217534 -0.045308 -0.040066 0.151111 -0.391109 -0.548191 0.231980 -0.067854 0.252615 0.124732 0.241706 -0.289711 -0.005955 0.256184 0.329346 -0.467604 -0.329214 -0.049336 -0.393681 0.135979 0.319463 -0.117466 -0.192595 0.006187 0.211078 -0.042540 -0.248350 0.050292 0.155955 0.472706 -0.396106 0.180712 0.271037 0.275473 -0.165017 -0.094134 0.145394 0.229928 
f915 0.158930 -0.054639 -0.117520 0.112192 0.097805 -0.167079 0.266898 0.059351 0.242441 0.049269 -0.315515 -0.177444 0.091402 -0.275589 -0.155472 -0.107106 0.334635 -0.145818 0.150682 0.261369 0.035748 -0.125148 0.140212 0.433297 0.166109 -0.584203 -0.100858 -0.125401 -0.065526 -0.129012 0.090598 0.395799 0.343902 0.053754 -0.110662 -0.355549 -0.016515 -0.144833 -0.389328 0.143290 0.000013 0.135425 0.295109 -0.390931 -0.044800 0.132453 -0.407340 0.199481 0.018134 -0.029451 -0.362530 0.173661 0.010425 -0.487230 0.256888 -0.587368 0.047118 -0.100069 0.058935 0.200518 -0.442331 0.476196 -0.475621 0.136621 0.187657 0.045896 0.255114 -0.132536 0.231599 -0.342876 -0.150786 -0.393248 -0.205795 -0.116296 -0.171122 0.172759 0.385698 0.010560 -0.250656 -0.277046 0.110374 -0.345375 -0.645056 0.061410 -0.628224 -0.246356 0.478720 -0.030309 -0.662344 0.216354 -0.167518 -0.474786 0.096379 0.381725 -0.339759 -0.288812 0.246339 0.316407 0.222728 0.252763 0.521084 -0.432463 -0.018630 0.139798 0.320698 -0.371436 -0.391244 -0.181964 -0.419098 0.219910 -0.052613 -0.336303 -0.098907 0.065151 0.123684 -0.025244 -0.034085 0.114502 0.306637 0.140990 -0.300381 0.259468 0.299900 -0.112190 -0.204873 0.101840 0.093679 -0.137782 
f914 -0.112662 -0.216256 0.071231 0.023146 0.102515 0.130868 0.253585 0.284033 -0.012360 0.291643 -0.379696 -0.148548 0.006272 0.041898 -0.205575 -0.387382 0.276465 -0.054214 0.392365 -0.124750 0.025844 -0.089652 0.320402 0.272225 0.261460 -0.663295 -0.075132 -0.388854 0.111649 -0.055630 -0.034644 -0.090713 0.199399 0.088576 0.039825 -0.326487 -0.225637 -0.320892 -0.338701 0.460325 0.261553 0.020775 0.379923 -0.290601 0.375670 0.137764 -0.256179 0.488935 0.070321 -0.046401 -0.731980 -0.002892 0.089753 -0.268243 0.249464 -0.379833 -0.085641 0.068302 0.233754 -0.213089 -0.082104 0.360735 -0.382153 -0.122579 0.324142 -0.283788 0.249837 0.067179 0.473647 -0.097653 0.376971 -0.285612 -0.196276 -0.035444 -0.264849 -0.062115 0.161836 0.171647 -0.267298 -0.438438 0.418461 -0.264724 -0.355081 -0.012235 -0.308981 -0.469958 0.259465 -0.206438 -0.586734 0.024392 -0.162100 -0.305472 0.189758 0.247923 -0.149265 -0.320209 0.147172 0.342854 0.404555 0.136095 0.290997 -0.410033 0.107121 0.308671 0.141555 -0.420692 -0.159855 0.116540 0.059656 0.141545 0.053310 -0.037581 0.069742 -0.070093 -0.166389 0.306509 -0.145338 0.070112 0.433039 0.203273 -0.110658 0.457952 0.199882 0.012062 -0.291395 -0.508470 0.219499 -0.058308 
f888 0.277138 -0.137662 0.114946 0.167364 0.498333 0.261482 0.076376 0.103293 0.171209 0.210138 -0.377498 -0.167400 -0.192117 -0.085520 0.249415 -0.358786 0.209967 -0.257378 0.165340 -0.003127 0.477678 -0.411988 0.380401 0.206263 0.343880 -0.784458 -0.130065 -0.375390 -0.016691 -0.052201 -0.127782 -0.118755 0.194737 0.431338 -0.124530 -0.319462 -0.045723 -0.139028 -0.444553 0.342144 0.128486 0.125793 0.271846 -0.058601 0.113423 0.233482 -0.325263 0.208465 -0.171837 -0.262427 -0.201577 0.333428 0.135524 -0.310257 0.285751 -0.564490 -0.077621 0.129920 0.025079 -0.103989 -0.052724 0.342131 -0.212642 0.118342 0.132179 -0.245055 0.003174 0.002242 0.200249 -0.448129 0.243193 -0.406414 -0.327364 -0.009989 0.011203 0.221788 -0.045537 0.063135 -0.205046 -0.341537 0.177385 -0.082995 -0.728065 -0.025301 -0.360232 -0.125280 0.136660 -0.108878 -0.549161 0.297811 -0.077314 -0.047982 -0.398690 0.469716 -0.091455 -0.066151 -0.098803 -0.092451 0.305907 0.508622 0.615433 -0.247952 -0.283718 0.042116 0.140313 0.025709 -0.527034 -0.009436 -0.105376 -0.083630 0.055586 -0.293328 -0.153397 0.095609 0.036977 -0.016944 -0.162668 0.205966 0.178365 0.180193 -0.434446 0.317112 0.438611 -0.024246 -0.417104 -0.051610 0.129247 0.010196 
f1021 -0.436217 0.181642 0.398435 0.553983 0.129966 0.671516 0.571290 -0.327347 0.290136 0.447563 0.536931 0.483101 -0.869372 -0.505479 -0.332981 -0.062157 -0.345199 0.327284 -0.161237 -0.222267 0.741945 0.164378 0.427994 0.237106 -0.663510 -0.806795 0.073600 -0.222202 -0.097117 -0.202253 0.215195 0.455370 -0.420788 0.124501 0.112985 0.195080 0.126451 0.140370 -0.382033 0.333183 0.140477 0.242226 -0.682743 0.530981 0.304336 -0.255822 -0.226058 0.114498 0.173902 0.221213 -0.523427 -0.331606 0.655882 0.333675 -0.068653 0.421227 0.054136 0.062925 0.003698 -0.427883 -0.999899 0.978251 -0.005604 -0.184240 0.472562 -1.156590 -0.301221 0.085411 -0.085444 1.151930 -0.078642 -0.421938 -0.358474 0.107912 -0.117727 0.937022 0.166727 0.084724 -0.596958 0.152326 0.155679 -0.488807 -0.981136 -0.067646 -0.248937 -0.119932 0.366311 -0.360221 -1.061034 -0.228926 0.077160 -0.182589 -0.213403 0.352442 -0.227479 -0.166160 -0.341228 -0.444508 0.013127 0.269538 0.743004 -0.345280 0.406682 0.950863 -0.606736 -0.715642 0.205660 0.015426 0.289396 0.301845 0.367439 0.082088 -0.452411 -0.189065 -0.353035 0.185344 0.338476 0.201176 0.019536 -0.851084 -0.702827 0.457606 -0.075203 0.594706 0.294796 -0.184561 -0.755635 -0.346343 
v1664 -0.580287 0.003225 0.298023 0.578586 0.448144 -0.202010 -0.024976 -0.554264 0.449288 0.156910 0.784902 0.396537 -0.565036 -0.180459 -0.376468 0.034411 -0.356987 1.181769 -0.088452 -0.496128 0.697643 0.092883 -0.147180 0.051975 -0.461446 0.096970 0.042542 0.163209 0.504730 -0.158330 -0.036990 0.234351 -0.501262 -0.410030 0.554980 0.011571 -0.127576 -0.026307 0.234321 0.122905 0.150310 0.372019 -0.533035 0.594122 -0.220323 -0.235939 -0.232421 0.166221 0.444744 0.553735 -0.291860 -0.679189 0.222739 0.394785 -0.115793 0.475214 -0.210634 -0.094557 0.177465 -0.245052 -0.683172 0.507844 0.360849 -0.200673 -0.252461 -0.483676 -0.123129 -0.007583 0.057162 0.940412 0.170188 0.023596 -0.171312 0.107899 0.111010 0.699622 -0.362127 0.042906 -0.109330 0.350906 -0.349694 -0.167645 -0.488828 0.007401 -0.061245 -0.236231 -0.268639 -0.334139 0.304990 -0.048796 -0.388175 0.287721 -0.064683 0.409764 -0.078716 0.025352 -0.507826 -0.330901 -0.346719 0.028927 -0.069291 0.648130 0.358212 0.772186 -0.268537 -0.324777 -0.324154 0.030972 0.436105 -0.118102 -0.053189 -0.052501 -0.329771 0.242492 0.241400 0.289501 0.219217 -0.214071 -0.053655 -0.463246 -0.276366 0.043725 -0.138476 -0.184835 0.223628 0.030645 -0.348541 0.098336 
v1657 -0.027659 -0.148420 -0.320974 -0.007818 0.506818 -0.577881 -0.300438 -0.304824 0.153403 -0.062575 0.603898 0.674998 0.081576 0.154160 0.154845 0.118699 0.217414 1.090830 0.097759 -0.032033 0.275899 -0.445419 -0.379449 -0.153976 0.188256 -0.228375 -0.466283 0.807020 0.870269 -0.189457 -0.324048 0.024294 -0.003348 0.225354 0.233334 -0.066341 -0.239984 -0.172514 -0.128987 -0.465400 -0.500593 0.020406 0.325643 0.305808 -0.367889 -0.115133 -0.304526 0.598060 -0.253970 -0.290547 -0.572609 -0.118468 -0.663607 0.135854 0.111309 -0.106759 -0.249950 -0.434295 0.342021 -0.061261 0.153604 -0.393877 0.051597 -0.291338 -0.207540 0.769237 0.152653 -0.087400 0.448922 -0.347569 0.430665 0.148508 0.321589 0.455772 -0.229724 0.253037 -0.393596 -0.030234 0.019118 0.366375 -0.496095 0.190091 -0.625936 0.133434 -0.611629 -0.126567 -0.165020 -0.327275 0.487738 0.455539 -0.343378 -0.042179 0.045022 -0.163114 0.200792 0.227496 -0.202157 0.245742 -0.324131 -0.029212 -0.418436 0.108194 -0.240936 0.452309 0.272972 0.291992 -0.583336 0.393090 -0.143699 -0.290669 0.052808 -0.532531 0.073842 0.331418 0.091883 0.353029 -0.294404 -0.618687 -0.337976 0.239245 0.214544 0.009227 0.507713 -0.125783 -0.479235 -0.077329 -0.019599 0.500058 
f867 -0.446410 0.221812 0.418423 0.577424 0.158816 0.495126 0.432751 -0.280123 0.304511 0.497099 0.523198 0.472771 -0.921440 -0.325469 -0.314677 -0.027841 -0.392508 0.281368 -0.236551 -0.322437 0.774650 0.095342 0.395922 0.219282 -0.631624 -0.712848 0.146976 -0.331386 -0.033111 -0.115157 0.115942 0.498073 -0.368606 0.075740 0.112942 0.093785 0.057559 0.138910 -0.407837 0.471519 0.196548 0.276575 -0.596539 0.551542 0.320129 -0.159260 -0.391358 0.118903 0.220760 0.299690 -0.426098 -0.345327 0.639270 0.200008 -0.029911 0.514553 0.087221 0.009099 0.027231 -0.432225 -1.055320 1.013744 0.030395 -0.130421 0.440579 -1.126534 -0.350967 0.117928 -0.066076 1.059860 -0.050815 -0.395425 -0.346831 0.063195 -0.184374 0.954873 0.152062 -0.002366 -0.656754 0.059389 0.329709 -0.553591 -1.008922 -0.017373 -0.384688 -0.251623 0.310920 -0.410298 -1.149284 -0.220654 0.027662 -0.118717 -0.163737 0.313431 -0.297532 -0.267556 -0.458076 -0.489553 0.022304 0.221777 0.757800 -0.280863 0.472236 0.919632 -0.467090 -0.653352 0.271117 -0.000640 0.475437 0.381401 0.315814 0.083725 -0.415517 -0.106375 -0.233514 0.217094 0.405190 0.240508 -0.001686 -0.850747 -0.629005 0.475217 -0.090973 0.655158 0.381888 -0.278171 -0.734773 -0.304270 
f1297 -0.032131 0.650085 0.363259 0.057827 -0.230667 0.013510 0.115633 0.377170 0.097865 0.027405 -0.050270 -0.266005 -0.278195 0.004705 0.141934 -0.820963 0.050872 -0.386597 -0.256768 0.327735 0.556522 -0.305043 -0.137027 0.000591 -0.264377 -0.157928 -0.043618 -0.117472 -0.395418 -0.453722 0.061799 0.059061 0.230716 -0.115247 0.079573 0.445065 0.271679 0.116422 -0.339323 0.393795 0.478184 0.157018 -0.204386 -0.059269 0.304533 -0.145150 -0.085769 -0.072606 -0.043618 -0.036704 0.177143 0.083541 0.600946 0.107182 0.044797 0.183776 0.337029 0.031366 -0.113152 0.070841 -0.192493 -0.005453 -0.278416 -0.052189 0.516989 -0.706438 0.027152 0.132102 -0.234013 0.320262 -0.065221 -0.273673 -0.580374 0.204644 0.261165 0.252731 0.446485 0.367733 -0.333020 -0.232193 0.594950 0.012208 -1.701371 -0.116176 0.382236 -0.012163 -0.047647 0.048010 -0.606156 -0.415981 -0.108059 -0.534388 0.257862 -0.191947 0.199459 -0.502579 -0.368184 -0.448076 0.244922 0.112407 0.248563 -0.408165 0.439792 0.190088 -0.042790 -0.537278 0.094021 0.062788 0.206042 0.284315 0.426528 -0.203909 0.185017 0.072008 -0.270988 -0.285710 -0.252239 0.405664 0.353741 -0.148682 0.036896 0.203837 -0.149555 0.573124 0.224464 -0.060633 -0.263415 0.093640 
f1293 -0.060235 0.498677 0.193168 -0.058570 -0.068287 0.207777 0.397324 0.556143 0.164618 0.099655 -0.178604 -0.412705 -0.194655 0.040632 0.071963 -0.510162 -0.057611 -0.704099 -0.199888 0.368661 0.153730 0.005449 -0.206113 0.157537 -0.471761 -0.228762 -0.186616 -0.168996 -0.179620 -0.476721 -0.060957 -0.068880 -0.214326 0.058555 -0.112822 0.452986 0.348417 0.100947 -0.181034 0.275725 -0.040599 0.225431 -0.155599 -0.039097 0.453873 -0.284838 -0.034881 0.032815 -0.398982 -0.035082 0.066755 0.316890 0.671487 0.041584 0.066334 0.151135 -0.000259 0.020479 0.042397 0.082882 -0.284801 -0.079656 -0.572147 -0.292920 0.348604 -0.349816 0.131976 0.195213 -0.260524 0.112669 -0.146533 -0.003631 -0.176555 0.099467 0.020826 0.209434 0.429683 0.231342 -0.398843 0.032830 0.890454 0.023613 -1.867741 -0.164221 0.139208 0.065247 -0.024698 -0.114692 -0.747087 -0.279271 0.040763 -0.274128 0.151202 0.087312 0.233009 -0.366217 -0.010135 -0.275782 -0.001951 -0.032159 0.244207 -0.362357 0.637254 0.101520 -0.222062 -0.661611 0.228545 0.088617 -0.098905 0.093560 0.402862 0.131682 0.331224 0.172379 -0.278856 -0.082477 -0.280605 0.782884 0.448499 -0.338902 0.020454 0.098913 0.025508 0.507120 0.391817 -0.070641 0.108182 -0.119763 
f935 -0.087022 0.418840 0.172944 -0.053064 -0.007441 0.047940 0.081358 0.367657 0.157166 0.183574 -0.175575 -0.321652 -0.199669 -0.215758 0.210445 -0.502991 -0.154129 -0.689650 -0.169317 0.501588 0.199938 -0.010835 -0.108976 0.009741 -0.338112 -0.229193 -0.110010 -0.202686 -0.372337 -0.643179 -0.003996 -0.035820 -0.148275 -0.219405 -0.047450 0.589417 0.355104 0.172777 -0.256272 -0.019822 0.297227 0.261769 -0.521823 -0.229720 0.607762 -0.149423 -0.114738 -0.075655 -0.309075 -0.169334 0.172128 0.311047 0.435728 0.068480 0.209656 0.172721 0.122283 0.346043 -0.147364 -0.003136 -0.214392 -0.026390 -0.427973 -0.502616 0.512921 -0.355550 -0.090038 0.047020 -0.210539 0.187293 -0.321656 -0.135052 -0.524219 -0.046713 0.296283 0.219552 0.241437 0.344724 -0.660697 0.025795 0.319150 -0.224932 -1.550783 -0.155670 0.116819 0.018958 0.057618 -0.088281 -0.470953 -0.310918 -0.105607 -0.448432 0.328507 0.012424 0.313041 -0.528148 -0.125145 -0.268573 0.054650 0.107455 0.550050 -0.670360 0.505928 0.279646 -0.237324 -0.499309 0.132492 0.019144 0.069073 0.205969 0.499827 -0.107517 0.058990 -0.000986 -0.097193 -0.309103 -0.109912 0.787381 0.394760 -0.318217 0.087764 0.057552 -0.098085 0.666975 0.002585 -0.030457 -0.120820 0.089287 
f1514 -0.065224 0.304280 0.320403 0.245038 -0.051936 0.175874 0.228870 0.766425 0.167077 -0.034176 -0.297572 -0.315772 -0.241836 -0.214438 0.101124 -0.686501 -0.041644 -0.474715 -0.243959 0.174235 0.374562 0.083310 -0.200316 0.130599 -0.216660 0.087149 -0.147120 0.001405 0.013674 -0.696026 -0.130445 -0.084966 0.020399 -0.223077 -0.123145 0.449147 0.667780 0.194985 -0.275046 0.251087 0.452266 0.203736 -0.091414 -0.285834 0.516155 -0.006758 -0.050679 0.003842 -0.064537 -0.123357 0.052633 0.273701 0.657896 0.120910 -0.025335 0.142867 0.393688 0.251815 0.038990 0.185055 0.064251 -0.085341 -0.146135 -0.254740 0.414492 -0.462165 -0.003892 0.027543 -0.191613 0.159849 -0.233589 -0.188319 -0.088331 0.079048 0.146118 0.290698 0.195391 0.134470 -0.380214 -0.048224 0.581444 0.139652 -1.516351 -0.262623 0.033376 -0.069582 0.056336 -0.081703 -0.778006 -0.265681 -0.203982 -0.375428 -0.015054 0.167897 0.051052 -0.529762 -0.143778 -0.469935 -0.001783 -0.086738 0.326517 -0.496485 0.493327 0.048064 -0.407715 -0.957696 0.054786 0.070538 0.124447 0.113789 0.432471 -0.195034 0.076541 0.025213 -0.205329 -0.234413 -0.412612 0.567420 0.347605 -0.481326 0.055662 0.366538 -0.076206 0.800477 -0.023513 -0.022508 -0.063355 0.062818 
f1299 0.008603 0.249121 0.171387 0.135284 -0.006997 0.087511 0.201227 0.162458 -0.024873 0.226217 -0.157146 -0.271007 -0.223185 -0.312969 0.070697 -0.388004 0.124763 -0.340286 -0.369868 0.351032 0.596520 0.032532 0.005259 -0.193144 -0.454709 -0.262550 0.102851 0.030578 -0.172404 -0.400244 0.361503 0.066298 -0.067782 0.021001 -0.103704 0.399275 0.596650 0.271359 -0.358293 0.099394 0.103982 0.077101 -0.193269 -0.293144 0.660183 0.046011 -0.057463 -0.234563 -0.213990 -0.078783 0.082635 0.161539 0.518712 -0.015554 0.148484 0.152889 0.343315 0.100772 0.049772 0.204541 -0.080372 -0.008061 -0.229033 -0.323823 0.460009 -0.622665 0.117428 0.154269 -0.336114 0.514239 -0.371719 -0.227034 -0.336095 0.172874 0.179822 -0.039451 0.234652 0.321920 -0.450267 0.072429 0.560390 0.151320 -1.717935 -0.056167 0.146689 0.032995 -0.243340 -0.047687 -0.658873 -0.225702 0.080052 -0.464337 0.240414 0.126300 0.221199 -0.391254 -0.236202 -0.490839 0.277206 0.125664 0.509629 -0.259929 0.448690 0.161234 -0.235586 -0.632400 0.216324 -0.052980 -0.152203 0.272101 0.357719 -0.218187 0.271418 -0.067611 -0.424601 -0.229706 -0.441023 0.742958 0.593715 -0.450386 -0.303990 -0.064380 0.009263 0.401180 -0.188650 -0.006652 -0.037703 -0.200646 
f1300 -0.201636 0.445192 0.318706 0.106355 -0.039413 0.155218 0.307999 0.527892 0.076186 0.284951 -0.118105 -0.291620 -0.087033 -0.173597 -0.037196 -0.547281 0.038312 -0.651309 -0.113961 0.185921 0.372827 -0.129199 -0.303066 -0.032700 -0.347937 -0.267079 -0.186920 -0.198323 -0.240134 -0.610404 0.148147 -0.036946 0.138538 -0.099293 0.033505 0.548528 0.236223 0.175513 -0.148065 0.236982 0.203489 -0.225618 -0.286457 -0.081622 0.633714 0.016930 -0.154554 -0.083731 -0.180317 -0.002663 0.000140 0.424196 0.473103 0.133683 0.190501 0.234731 0.128875 0.295800 -0.028680 0.106715 0.155444 -0.146369 -0.343659 -0.067345 0.252124 -0.639436 -0.191849 -0.032716 -0.217233 0.298104 -0.291201 -0.434574 -0.232797 -0.099744 0.184017 0.269826 0.492739 0.226576 -0.228488 0.136678 0.418312 0.091198 -1.779076 -0.042226 0.199262 0.179586 0.198028 -0.011207 -0.748008 -0.460394 -0.133789 -0.174647 0.198715 0.045778 0.260886 -0.544177 -0.149479 -0.220686 0.184096 0.079209 0.299780 -0.205382 0.361703 0.410786 -0.243539 -0.622966 0.073663 0.184236 0.227354 0.152548 0.327299 -0.117387 0.248818 -0.089078 -0.187089 -0.285940 -0.291946 0.824702 0.475424 -0.360778 0.041997 0.327213 0.033448 0.545460 -0.087720 -0.219351 0.197125 0.336797 
f1517 -0.225262 0.301247 -0.040841 -0.087088 -0.209158 0.303277 0.207356 0.436951 0.052677 0.032445 -0.030810 -0.358389 -0.274284 -0.177031 -0.097233 -0.679690 0.014458 -0.472698 -0.266274 0.390037 0.430488 -0.272560 -0.174828 0.031106 -0.372619 -0.149689 -0.058903 0.106530 -0.391720 -0.369025 0.300559 0.105228 0.010944 -0.022847 -0.119992 0.340141 0.525871 0.060850 -0.262681 0.127044 0.121693 0.228870 -0.182814 -0.269308 0.827382 -0.126277 -0.058600 -0.062253 -0.265933 -0.097849 0.297777 0.261222 0.513040 0.245265 -0.085901 0.001440 0.380473 0.055615 -0.165536 -0.020235 -0.136944 -0.046555 -0.292812 -0.277776 0.371505 -0.749863 -0.191839 -0.112225 -0.131323 0.154282 -0.466336 -0.344135 -0.084851 0.047213 0.090025 0.384583 0.257024 0.229132 -0.350724 -0.249646 0.542970 0.084875 -1.889545 -0.135760 0.006973 0.219206 -0.129382 -0.109854 -0.806072 -0.202991 -0.204809 -0.183435 0.214226 -0.074543 0.147230 -0.250191 -0.235496 -0.285777 -0.212705 -0.049288 0.368446 -0.477046 0.518306 0.403447 -0.247106 -0.200714 0.044807 -0.209774 -0.025546 -0.103641 0.443754 -0.158486 0.174496 -0.199177 -0.114128 -0.277682 -0.335847 0.574667 0.323836 -0.359668 -0.088406 0.114809 0.002905 0.714301 0.215545 -0.216211 -0.167937 -0.083140 
f1291 0.217673 0.287865 0.194856 -0.065032 -0.224412 0.319148 0.120003 0.280907 0.221339 0.004360 -0.087923 -0.298916 0.006242 -0.216776 0.181138 -0.325223 -0.158485 -0.452342 -0.110006 0.367718 0.308361 -0.270240 0.006473 -0.040574 -0.229276 -0.124395 -0.093669 0.069610 -0.271035 -0.414219 0.070256 0.085628 0.087165 -0.235009 0.054478 0.577087 0.551614 -0.122213 -0.352988 0.298883 0.316449 0.163760 -0.178579 0.039084 0.702780 -0.176667 -0.026237 -0.182558 -0.324073 0.074048 0.307279 0.150552 0.551729 0.051483 0.376527 0.153598 0.408981 -0.077832 -0.045662 0.304625 -0.207891 0.091756 -0.216306 -0.189912 0.415042 -0.534015 -0.084902 0.222425 -0.194682 0.521938 -0.332181 -0.261917 -0.141778 0.151568 0.242786 0.013945 0.310732 0.205910 -0.290080 -0.155640 0.378630 0.025176 -1.807555 -0.156668 -0.047852 0.017811 0.010438 0.032803 -0.776480 -0.395250 -0.160283 -0.102777 0.342478 0.046210 0.168480 -0.613535 -0.366792 -0.108796 0.073669 -0.025500 0.171295 -0.470387 0.623475 0.248185 -0.157637 -0.928303 0.011821 -0.244146 0.017546 0.232508 0.126627 -0.336338 0.275123 0.047384 -0.161369 -0.185792 -0.471135 0.681874 0.431821 -0.269885 -0.062279 0.103552 -0.143243 0.577020 0.369414 0.133150 -0.168322 0.242466 
f1417 -0.467227 0.717965 0.668978 0.303465 -0.134354 -0.201983 0.200041 -0.079678 0.432026 0.885852 -0.057516 -0.068356 -0.138301 -0.473189 0.183770 -0.213225 0.395545 0.423701 -0.305952 0.063888 0.920256 -0.226119 -0.087350 0.264038 -0.852811 -1.070988 -0.790293 0.031472 -0.145511 -1.114148 -0.717639 0.435624 -0.082398 0.201211 0.153683 0.295625 -0.205689 0.218252 -0.548154 0.530074 0.635160 -0.197356 0.045113 -0.134699 0.473145 -0.309425 -0.529268 0.254729 -0.841465 0.126569 -0.884293 0.218358 0.812748 -0.183086 0.514522 0.328745 0.094676 0.089303 0.258200 0.039691 -0.949085 0.359549 -0.675876 -0.261945 1.064236 -0.743994 0.499640 0.389750 -0.306006 0.584578 0.015671 -0.164426 -0.363712 -0.054210 -0.068393 0.347595 -0.186433 0.106673 -0.605310 0.022876 0.822183 -0.020512 -0.642731 -0.711701 -0.537745 -0.434303 0.745983 -0.977555 -0.581309 0.163778 -0.157918 -0.606932 -0.493322 0.431391 0.125257 -0.288047 -0.307346 0.170086 0.523107 -0.173756 -0.075811 -0.901040 0.485281 0.798557 -0.840016 -0.509173 -0.237777 0.570871 0.118504 -0.036604 0.524500 -0.486831 0.289753 0.223489 -0.737493 -0.246167 0.449286 0.452661 0.522064 -0.021499 -0.488337 0.432532 -0.031299 0.943856 0.121570 -0.842736 -0.182225 0.455125 
f1518 -0.007642 0.296977 0.227902 -0.142728 0.208027 0.304820 0.237309 0.552400 0.111351 0.103267 -0.083858 -0.474252 -0.224052 -0.142666 0.049498 -0.557094 -0.116279 -0.476603 -0.294516 0.593410 0.181038 -0.041139 0.013238 0.175214 -0.278597 -0.082976 -0.077174 0.051523 -0.173999 -0.576751 -0.029918 -0.056856 0.192321 -0.161816 0.012054 0.547916 0.268023 0.132067 -0.255898 0.043014 0.146187 -0.080202 -0.169919 -0.200330 0.449142 -0.112350 -0.158860 -0.266254 -0.513714 -0.230284 0.128866 0.024028 0.559567 -0.058333 0.091756 0.337341 0.271718 0.081500 -0.384236 0.193561 -0.123371 0.024591 -0.328322 -0.230696 0.290286 -0.630416 0.081282 0.010317 -0.210331 0.381460 -0.340085 -0.206791 -0.403528 0.369086 -0.025279 0.200843 0.294628 0.094139 -0.354397 -0.061495 0.566574 -0.122048 -1.734972 -0.400267 0.325495 0.156044 0.297983 -0.088573 -0.746284 -0.027143 0.059293 -0.398473 0.144170 0.339910 0.173812 -0.669227 -0.151085 -0.357536 0.199981 0.002643 0.299040 -0.323957 0.532882 0.462344 -0.152311 -0.639219 0.054666 -0.086787 0.043637 0.209951 0.225270 -0.020080 0.055795 0.029889 -0.189998 -0.207967 -0.187518 0.467600 0.237193 -0.419872 0.118864 0.101894 -0.033638 0.718438 0.275675 0.241400 -0.072660 0.071506 
f1281 0.008865 0.451577 0.366334 -0.053086 0.005613 0.176517 0.105049 0.295294 0.059490 0.205995 0.161129 -0.284078 -0.195053 -0.122027 0.187470 -0.368946 0.073918 -0.405783 -0.090093 0.233618 0.319583 -0.157537 -0.217694 -0.072516 -0.492970 -0.182224 -0.201958 -0.353707 -0.248653 -0.248063 -0.106895 0.006491 -0.104016 -0.377540 0.162767 0.346139 0.593010 0.050067 -0.235400 0.057040 0.510038 0.250252 -0.166596 -0.414074 0.474204 0.014392 -0.172153 -0.201574 -0.227045 -0.111367 0.276524 0.400014 0.855149 0.061614 0.098793 0.115458 0.174664 0.055471 -0.100472 0.109907 -0.024559 -0.364373 -0.383240 -0.039553 0.223192 -0.527536 0.060496 0.016539 -0.236784 0.010555 -0.177015 -0.080120 -0.410818 -0.034269 0.075466 0.260983 0.275030 0.134404 -0.267517 -0.121666 0.592465 0.107774 -1.926764 0.044896 0.103782 0.067176 0.248570 0.020454 -0.759892 -0.430058 -0.151089 -0.396814 0.115871 0.083961 0.118152 -0.422573 -0.393352 -0.446622 -0.092791 0.121577 0.354859 -0.526662 0.521295 0.457802 -0.093904 -0.783115 0.251412 0.134004 -0.094876 0.177858 0.072971 -0.190603 0.171438 -0.152493 -0.142189 -0.381572 -0.354760 0.545927 0.145735 -0.184103 0.026325 0.181528 -0.010193 0.479038 0.207926 -0.181371 -0.186182 0.271269 
f937 0.112795 0.499983 0.111714 0.130740 -0.068655 0.071540 0.324003 0.362253 0.199571 -0.071913 0.064091 -0.401432 -0.234011 -0.076807 0.144627 -0.551326 0.024511 -0.482068 -0.213213 0.301841 0.181406 -0.088021 -0.019517 0.124408 -0.419756 -0.190405 -0.229109 -0.138153 -0.199245 -0.514175 0.132757 -0.114584 0.213725 -0.080518 -0.115872 0.320179 0.375673 0.395763 -0.138261 0.355866 0.277780 0.117098 -0.186521 0.028921 0.444597 -0.271960 -0.162755 -0.100744 -0.133796 -0.011965 0.136108 0.231553 0.696510 0.080539 0.108011 0.425440 0.538258 0.260071 -0.130026 0.184887 0.117168 -0.128942 -0.364226 -0.306831 0.459117 -0.955575 0.160482 0.104510 -0.387302 0.218825 -0.425667 -0.242553 -0.054398 -0.117425 -0.066786 -0.032231 0.118250 0.103260 -0.367389 0.216290 0.587112 -0.134265 -1.722980 -0.034660 -0.007430 0.045405 0.011827 -0.157824 -0.860156 -0.197947 0.099947 -0.415693 -0.032515 0.126934 0.100980 -0.279895 -0.382306 -0.264920 0.152019 0.081167 0.229915 -0.368781 0.477459 0.397207 -0.225207 -0.578623 0.040342 0.150363 0.022614 0.107299 0.336311 -0.397300 0.354691 -0.177108 0.234454 -0.318202 -0.350158 0.705387 0.486517 -0.244727 0.012083 0.217667 -0.063861 0.529482 0.156180 -0.102739 -0.079552 0.195204 
f1507 0.051614 0.449432 -0.188518 0.099201 -0.055447 0.176231 0.211871 0.609725 0.177006 0.223296 -0.209065 -0.662640 -0.295561 -0.093151 0.103057 -0.378937 -0.035697 -0.669078 -0.286843 0.465516 0.588680 -0.223994 -0.153864 0.029906 -0.320269 -0.134652 -0.233692 -0.177757 -0.285385 -0.445594 0.164167 -0.155086 -0.101789 -0.103456 0.026942 0.504411 0.509393 0.202726 -0.345893 0.063810 0.240458 0.307719 -0.270149 -0.157059 0.427667 0.052677 -0.205919 -0.122167 -0.393456 -0.046006 0.403081 0.387922 0.588599 -0.016621 0.156041 0.019957 0.164126 -0.024369 -0.150730 0.151362 -0.043605 0.054469 -0.302955 -0.392319 0.380419 -0.754765 0.012919 0.180003 -0.288993 0.273059 -0.358422 -0.508776 -0.345749 0.229713 0.089093 0.026863 0.085579 0.374400 -0.247329 -0.123662 0.465912 0.004116 -1.730504 0.000463 0.146710 0.009516 0.151191 -0.077804 -0.562415 -0.305283 -0.061475 -0.609530 0.175459 0.141670 0.014227 -0.427073 -0.121349 -0.329573 -0.094621 0.000233 0.095027 -0.246532 0.310746 0.343960 -0.220440 -0.575191 0.051270 -0.105145 0.109363 0.223690 0.216353 -0.037740 0.175719 -0.071167 -0.426620 -0.425659 -0.262456 0.566511 0.099552 -0.385631 0.059105 0.251961 -0.030272 0.600016 0.136332 -0.079606 0.020511 0.191159 
f1511 -0.098662 0.450051 0.239092 -0.074475 -0.267451 0.044017 0.299856 0.246007 0.149861 0.272399 0.133379 -0.164321 -0.231301 -0.167693 -0.054266 -0.585620 -0.153835 -0.721772 -0.251358 0.444020 0.309958 -0.260344 0.051185 -0.024214 -0.142609 -0.324373 -0.191175 0.118495 -0.161386 -0.721402 0.142901 -0.255946 -0.122796 -0.366765 0.079678 0.306075 0.416975 0.157180 -0.360218 -0.000727 0.342814 -0.014682 0.107613 -0.144202 0.670031 -0.062582 -0.055308 -0.346232 -0.481479 0.055160 0.213455 0.137557 0.576356 0.030900 0.194390 0.085581 0.394689 0.031745 -0.025582 0.282373 -0.181465 -0.166652 -0.398909 -0.354047 0.366312 -0.661494 -0.001988 0.227612 -0.415960 0.133011 -0.212069 -0.165724 -0.054171 0.064484 0.239155 0.251817 0.276195 0.392391 -0.402712 -0.124189 0.567334 -0.140848 -1.597562 -0.208791 0.123022 0.030042 0.094431 -0.044469 -0.799070 -0.292509 -0.012272 -0.508969 0.105946 0.156153 0.014785 -0.346250 0.081000 -0.206603 0.291601 0.048451 0.099378 -0.476069 0.676498 0.273671 -0.319378 -0.683376 0.349631 0.062390 0.058883 0.022797 0.274562 -0.269409 0.232782 0.028604 -0.235288 -0.505394 -0.345537 0.379412 0.396475 -0.187533 -0.014203 -0.053079 -0.227151 0.768011 0.010983 -0.147570 0.138857 0.049383 
f934 0.053588 0.498130 0.087117 0.039456 0.017187 -0.023456 0.091607 0.583695 0.064320 -0.007923 -0.053315 -0.231871 -0.174804 -0.111278 0.132196 -0.473677 -0.024155 -0.487440 -0.652196 0.288453 0.402057 -0.313120 -0.022433 0.095214 -0.494043 -0.461849 -0.143754 -0.107885 0.000523 -0.504820 0.166984 0.017817 0.021015 -0.125558 0.012074 0.404121 0.525174 0.253614 -0.215128 0.228428 0.200403 0.200345 -0.106978 -0.285327 0.469189 -0.312985 -0.034650 -0.221031 -0.485532 -0.195507 0.273236 0.197828 0.584830 -0.119683 0.141062 0.190099 0.301691 0.176719 -0.164616 0.128464 0.071245 -0.059866 -0.356129 -0.275441 0.261296 -0.697223 -0.126881 0.086319 -0.319774 0.252670 -0.346443 -0.232862 -0.156177 -0.110088 0.359327 0.213255 0.293155 0.054828 -0.487685 0.102560 0.502214 0.101355 -1.501443 -0.119342 0.122452 0.052666 0.063069 0.093339 -0.745341 -0.090056 -0.376817 -0.111815 0.172383 0.027185 0.061940 -0.769946 -0.246628 -0.353865 0.226304 -0.062930 0.377219 -0.394923 0.687514 0.367236 0.062259 -0.690426 0.185964 -0.007209 -0.002480 0.011251 0.332990 -0.186652 0.279992 -0.013575 -0.459483 -0.144419 -0.114089 0.464629 0.525706 -0.223912 -0.004455 -0.017313 -0.080438 0.880144 0.111314 0.122347 -0.069758 -0.010422 
f1285 -0.045190 0.444824 0.243655 -0.011548 -0.146890 0.486371 0.038791 0.448984 -0.048947 0.103772 -0.186424 -0.316062 -0.167346 -0.065522 0.069839 -0.605192 -0.310673 -0.268487 -0.204250 0.128210 0.471948 -0.288428 0.014200 0.054301 -0.426662 -0.143657 -0.190811 -0.065065 -0.468610 -0.686684 0.081583 -0.093838 0.213918 -0.128754 0.078942 0.304850 0.269364 0.152897 -0.220549 0.109296 0.308891 0.140588 -0.280149 -0.417127 0.632464 0.075909 -0.008110 -0.111162 -0.197973 -0.336573 0.081513 0.334951 0.689945 0.113389 0.330608 0.227925 0.208394 0.096895 0.087354 0.070570 -0.046580 -0.094712 -0.388851 -0.377009 0.345043 -0.826478 -0.051143 -0.020801 -0.262581 0.313809 -0.287466 -0.387359 -0.126099 -0.195592 0.195767 -0.067570 0.253924 0.114497 -0.372748 0.098179 0.292787 -0.048894 -1.708915 -0.261731 0.039005 0.090460 0.078577 -0.048770 -0.811589 -0.105559 -0.113568 -0.398123 0.203505 -0.042096 0.447025 -0.263748 -0.180466 -0.362342 0.118626 0.091079 0.282020 -0.278607 0.451309 0.048206 -0.115976 -0.789404 0.389591 0.027387 0.076856 -0.039765 0.271410 0.035947 0.412567 0.128454 -0.203139 -0.227508 -0.257112 0.443798 0.336316 -0.284801 -0.080533 0.266480 -0.078068 0.798260 0.335692 -0.061408 -0.129366 -0.124534 
f872 -0.422325 0.677046 0.645197 0.256001 0.021631 -0.222079 0.210043 -0.087916 0.392152 0.883104 -0.015921 -0.180572 -0.187255 -0.490991 0.108542 -0.332793 0.520744 0.494200 -0.278661 -0.013799 0.874980 -0.264680 -0.076963 0.358244 -0.819076 -1.252850 -0.832601 0.130644 -0.053852 -1.061384 -0.651599 0.393643 -0.086550 0.215060 0.112846 0.417416 -0.190956 0.320941 -0.537241 0.484490 0.644609 -0.230899 -0.096991 -0.053388 0.432414 -0.288991 -0.508751 0.311414 -0.900451 0.061369 -0.966706 0.128537 0.869449 -0.089490 0.545452 0.388131 0.082712 0.078574 0.344697 0.068866 -1.011319 0.338639 -0.776393 -0.219398 0.921282 -0.639697 0.358466 0.416539 -0.170057 0.483735 0.171860 -0.159012 -0.418218 -0.039966 -0.058850 0.414196 -0.165861 0.121532 -0.547340 0.048792 0.816113 0.083910 -0.748077 -0.756425 -0.498539 -0.486441 0.775099 -0.799463 -0.612978 0.092520 -0.154094 -0.565188 -0.502342 0.495835 0.187483 -0.282438 -0.262677 0.056490 0.421249 -0.218156 -0.155593 -0.923956 0.518806 0.828331 -0.854730 -0.491208 -0.326497 0.600696 0.148394 -0.025146 0.534122 -0.528477 0.178356 0.205994 -0.693103 -0.190271 0.369841 0.485786 0.500917 0.028128 -0.283230 0.407439 0.003247 1.004750 0.028891 -0.790544 -0.239116 0.343235 
f1301 -0.134504 0.103860 0.073541 0.064032 -0.267269 0.160546 0.215726 0.549695 0.008698 0.030883 -0.119331 -0.174124 -0.071193 -0.239033 0.047763 -0.724659 -0.199780 -0.713441 0.040679 0.280035 0.606338 -0.080759 -0.159134 0.133937 -0.273301 -0.133695 0.079943 -0.133282 -0.240756 -0.633161 0.050837 0.085992 -0.143178 -0.207441 0.165709 0.279587 0.287447 0.249261 -0.136964 0.073200 0.159666 0.341763 -0.297940 -0.358097 0.339006 0.004926 0.057433 -0.274804 -0.274261 0.129220 0.099936 0.311919 0.634058 0.026990 0.298811 0.350730 0.357633 0.182191 -0.064288 0.137544 -0.223242 -0.006393 -0.504919 -0.289175 0.349296 -0.577741 0.046568 0.105672 -0.480723 0.142676 -0.278151 -0.334866 -0.424926 0.184746 0.362550 0.099958 0.226858 0.309193 -0.138792 -0.060606 0.663221 0.147990 -1.808188 0.022471 0.006983 0.036211 -0.077756 -0.069246 -0.547263 -0.233514 -0.138861 -0.437387 0.161617 0.041453 0.021633 -0.441690 -0.337614 -0.227981 0.192682 0.139446 0.484350 -0.335807 0.390431 0.220863 -0.466776 -0.531940 0.337192 -0.068945 -0.143253 0.150005 0.054497 -0.170176 0.311048 0.005789 -0.022764 -0.184313 -0.241557 0.599039 0.400007 -0.446247 -0.089661 0.339443 0.017399 0.773484 0.373067 -0.107349 -0.130626 0.089147 
f1620 -0.036449 0.564695 -0.081330 -0.061996 -0.091518 0.056216 0.061557 0.305867 0.022827 0.012314 0.093430 -0.150847 -0.202528 -0.103140 0.171151 -0.364991 -0.034104 -0.730812 -0.212686 0.288515 0.274290 -0.398398 -0.013674 0.124509 -0.137540 -0.115639 0.096502 -0.155132 -0.099882 -0.517475 0.039566 -0.297831 -0.052949 -0.096256 -0.185378 0.474240 0.137951 0.461107 -0.345208 0.147001 0.200176 0.118704 -0.512875 -0.122884 0.715225 -0.063042 -0.034573 -0.176205 -0.229581 0.102697 0.174657 0.249286 0.582611 0.205575 0.174899 0.157215 0.321470 0.159882 0.042537 0.045499 -0.096449 -0.163301 -0.232326 -0.259671 0.241857 -0.468107 -0.123593 0.024000 -0.171181 0.323968 -0.258534 -0.247027 -0.102878 0.134731 0.178968 0.213453 0.252859 -0.043727 -0.219134 -0.044877 0.552065 -0.070386 -1.954594 -0.019488 0.158359 0.242808 0.225287 0.058117 -0.735749 -0.060308 0.055453 -0.466838 0.205950 0.135026 -0.141262 -0.572633 -0.296622 -0.573356 -0.078865 -0.089721 0.266305 -0.351440 0.281224 0.328280 -0.096459 -0.745135 0.084976 -0.241589 -0.053506 0.127296 0.408357 -0.273485 0.130155 -0.143677 -0.206263 -0.147684 -0.512474 0.705473 0.334816 -0.193761 -0.172281 0.125138 -0.066112 0.650032 0.226263 -0.001299 0.176493 -0.027620 
f1290 0.157035 0.568550 0.240566 0.235119 0.044907 0.386518 0.159797 0.319267 0.068313 -0.105492 0.071175 -0.054115 -0.105291 -0.177284 -0.035800 -0.456090 -0.041432 -0.605502 -0.197222 0.478142 0.276553 0.121048 0.071982 0.032713 -0.288047 -0.015091 0.010741 -0.025942 -0.283283 -0.435194 0.040253 -0.277900 -0.105029 -0.168306 0.075402 0.371983 0.404160 -0.015722 -0.338051 0.342001 0.334676 0.076241 -0.107814 -0.228901 0.741120 0.147667 -0.238878 -0.093262 -0.199102 -0.053582 0.318788 0.195196 0.538923 -0.015888 0.084435 0.127237 0.167326 0.063145 0.111156 -0.015050 -0.302784 -0.097096 -0.387260 -0.301645 0.253115 -0.739686 0.064885 0.038387 -0.367958 0.347382 -0.391286 -0.380286 -0.426439 -0.028002 0.100036 0.175303 0.389749 0.269306 -0.229777 0.000585 0.579746 -0.077678 -1.527785 0.053877 0.320209 0.165543 -0.026262 -0.131549 -0.814130 -0.208551 -0.163215 -0.436644 0.163144 -0.169039 0.159759 -0.450817 -0.240311 -0.324167 0.037674 0.153780 0.219829 -0.359478 0.588037 0.467701 -0.110191 -0.667310 0.354444 0.214507 -0.033709 0.205591 0.358020 -0.462962 0.117480 0.144982 -0.179255 -0.451596 -0.537746 0.553571 0.421364 -0.380071 -0.276635 0.152969 0.099073 0.760062 0.206392 -0.219170 0.177223 0.068774 
f1016 -0.660529 -0.071481 -0.062986 0.580458 -0.217591 -0.002228 0.079190 0.011194 0.113820 0.483839 -0.000785 0.564398 -0.316394 -0.167045 0.174011 -0.325056 -0.405982 0.226338 -0.140099 -0.070438 0.884013 -0.326504 -0.073581 0.508219 -0.226649 -0.627697 -0.510700 0.460588 0.122073 -0.523269 -0.160067 -0.063723 -0.290818 -0.247599 0.315584 0.138330 0.170320 -0.179483 -0.148070 0.385120 -0.293584 0.081754 -0.259047 -0.147743 0.474559 -0.139158 -0.684257 0.111904 -0.365390 -0.250053 -0.177026 0.057776 0.138343 -0.263271 0.344538 -0.360681 -0.320217 -0.285007 -0.319652 -0.059252 -0.676970 0.597097 -0.219676 -0.723702 0.142203 -0.555708 0.137253 0.320518 0.078303 0.551911 0.140205 0.411844 0.071146 0.331123 -0.123540 0.319501 -0.265959 -0.296273 -0.567685 0.683767 0.107166 -0.286398 -2.094493 0.143881 -0.381811 0.172647 0.079660 -0.827580 -0.583077 0.046017 -0.268331 -0.125449 -0.320089 -0.134549 0.174468 -0.189989 0.021198 -0.005178 0.137686 -0.051444 0.136949 -0.884834 0.201056 0.722493 -0.272401 -0.642136 -0.197948 0.072768 -0.447909 0.241394 0.701557 -0.431732 0.320166 0.183811 0.007500 0.560135 0.151023 -0.048022 -0.094391 -0.329386 -0.404134 0.433441 -0.220100 0.296161 -0.124814 -0.457235 -0.070737 0.316651 
f1509 0.034562 0.384178 0.075543 0.238696 0.037046 0.284278 0.166233 0.683832 0.075569 0.124357 -0.307646 -0.303730 -0.295613 -0.199011 0.090449 -0.599880 0.117270 -0.628519 -0.076378 0.463416 0.276631 0.011220 0.007097 -0.085987 -0.352343 -0.052157 -0.110914 -0.122181 -0.370536 -0.472808 0.159312 -0.184186 -0.018147 -0.007522 0.102598 0.575736 0.382357 -0.129928 -0.117519 0.102669 0.150185 0.246208 -0.369065 -0.099717 0.486194 -0.007276 -0.086928 -0.146267 -0.238777 -0.109212 0.144492 0.286940 0.836655 0.089956 0.149703 0.050429 0.438853 0.112604 -0.274723 0.232134 -0.142774 -0.073322 -0.378682 -0.250428 0.176307 -0.579607 -0.018366 0.179738 -0.151213 0.212166 0.045669 -0.178791 0.041527 0.505865 0.131724 -0.055551 0.561335 0.317409 -0.427156 -0.078369 0.539839 -0.068455 -1.550969 -0.113978 0.217330 0.108051 -0.084332 0.159366 -0.877408 -0.214759 -0.268176 -0.273233 0.319301 0.009435 0.207132 -0.436941 -0.214227 -0.438643 -0.076330 0.060899 0.301627 -0.355643 0.494428 0.397942 -0.111561 -0.818988 0.088892 0.331272 -0.069816 0.221169 0.367083 -0.224508 0.441722 -0.207257 -0.064625 -0.313707 -0.190552 0.543435 0.463227 -0.312760 -0.058664 0.122253 -0.273214 0.771144 0.117316 -0.085008 0.022397 -0.112989 
f1508 -0.101386 0.338041 0.169262 0.148417 -0.189120 0.091288 0.142666 0.489453 -0.077131 0.249109 -0.128862 -0.202912 -0.208932 -0.213702 0.005251 -0.438240 -0.085108 -0.383998 -0.406397 0.147841 0.503887 -0.123389 0.168831 0.111743 -0.349205 -0.272303 0.163384 -0.274082 -0.330141 -0.577298 0.014148 0.044296 -0.013769 -0.077638 0.064022 0.650347 0.458680 0.112867 -0.319958 0.237329 0.296546 0.203496 -0.138364 -0.077095 0.648610 0.089531 -0.191159 -0.089577 -0.417166 -0.268791 0.028584 0.230992 0.689550 -0.010525 0.125145 0.025527 0.492430 0.157546 0.055898 0.156615 -0.087925 -0.158250 -0.222703 -0.342636 0.430465 -0.611707 -0.054422 0.242943 -0.193424 0.133045 -0.427076 -0.045306 -0.212627 0.139705 0.135730 -0.105807 0.246900 0.233447 -0.264275 -0.109645 0.654626 0.031302 -1.842408 -0.334810 0.073108 0.137621 -0.251530 0.171663 -0.573458 -0.241745 -0.083907 -0.395482 0.142394 0.084695 0.130811 -0.295382 -0.015940 -0.354397 0.003486 -0.010909 0.124372 -0.377447 0.480792 0.463021 0.046179 -0.524666 0.351870 0.147545 0.103520 0.148970 0.442171 -0.243573 -0.132938 -0.148806 0.050344 -0.381034 -0.279646 0.795434 0.385428 -0.363510 0.053308 0.013670 -0.240083 0.616927 0.244079 -0.289118 0.039410 -0.022379 
f1303 0.090135 0.390826 0.154829 0.252796 -0.028217 0.268852 0.321644 0.331994 0.035606 0.121994 0.109979 -0.221344 -0.184146 -0.192476 -0.214744 -0.428018 -0.207793 -0.638777 -0.120499 0.311295 0.283915 -0.104530 0.056530 -0.021305 -0.186257 -0.051947 -0.074649 -0.161989 -0.354369 -0.691559 0.066349 0.095274 -0.084383 -0.185183 0.012149 0.514017 0.552525 0.336224 -0.174845 -0.014446 0.222579 0.094993 -0.181987 -0.172800 0.375486 -0.127519 0.079945 -0.265126 -0.296916 -0.187133 -0.103090 0.059511 0.811354 -0.018633 0.128411 -0.041585 0.321064 0.363879 0.135538 0.172103 -0.047265 -0.029659 -0.305815 -0.253937 0.405212 -0.549313 -0.247953 0.050563 -0.179778 0.405347 -0.217468 -0.071339 -0.442640 0.091521 0.109844 0.033844 0.142572 0.108798 -0.284063 -0.196373 0.474184 -0.118266 -1.792623 -0.218829 -0.068022 -0.155705 0.114113 -0.113396 -0.836088 -0.246034 0.086404 -0.170514 0.226060 0.049215 0.127978 -0.426597 -0.202932 -0.216513 0.043534 0.012989 0.394419 -0.228867 0.551047 0.253899 -0.198274 -0.506724 0.155447 -0.071386 0.071773 0.065722 0.366473 -0.161334 0.326832 -0.022941 -0.493550 -0.513961 -0.610563 0.790630 0.179203 -0.234384 -0.029663 0.217280 -0.075642 0.680771 0.120992 -0.033817 -0.287551 0.201756 
f1618 0.083072 0.237218 0.033978 0.120138 -0.005860 0.322730 0.151848 0.460904 0.038714 0.120555 -0.071895 -0.201110 -0.168493 -0.151694 -0.021818 -0.840443 -0.225212 -0.559017 -0.253764 0.391102 0.328493 -0.088248 0.027957 0.052160 -0.463608 -0.203788 -0.014655 -0.268059 -0.406146 -0.602570 -0.027907 -0.090208 0.064370 -0.084643 -0.087376 0.169704 0.567671 0.277718 -0.192308 0.061634 0.310367 0.219388 -0.269733 -0.248337 0.659705 -0.152622 -0.050711 -0.266454 -0.405688 0.025500 0.155114 0.170111 0.549946 0.156535 0.028877 0.118672 0.207707 -0.138775 -0.177213 0.303873 0.065688 -0.165585 -0.196193 -0.201456 0.330629 -0.401628 0.083072 0.246652 -0.047193 0.140042 -0.196645 -0.367170 -0.409683 -0.100241 0.092401 0.235547 0.459331 0.293191 -0.476515 0.164275 0.354802 -0.081136 -1.804844 0.185721 0.313197 -0.037408 -0.019013 -0.059010 -0.683889 -0.273777 -0.109043 -0.291053 0.153574 0.098325 0.093160 -0.462829 -0.313349 -0.407542 0.100507 -0.234665 0.091026 -0.342820 0.693985 0.187768 -0.316546 -0.454593 0.032468 0.097856 -0.205576 0.410751 0.180653 -0.152005 0.284462 -0.405610 -0.186719 -0.155440 -0.413011 0.599934 0.476613 -0.222135 -0.000888 0.106736 -0.077464 0.867727 0.132184 -0.291697 -0.017325 0.124250 
f1387 -0.569295 -0.221053 -0.084975 0.410460 -0.241570 -0.200254 -0.108097 -0.249477 0.073190 0.352547 0.094275 0.598423 -0.373858 -0.170584 0.103214 -0.149815 -0.341774 0.225904 -0.010393 0.018524 0.624143 -0.157534 -0.054986 0.287930 -0.162316 -0.615371 -0.537733 0.331273 0.229870 -0.543932 -0.230979 0.086446 -0.198935 -0.212158 0.337949 -0.041108 0.208929 0.032707 -0.216462 0.168809 -0.382243 0.036611 -0.365209 -0.187847 0.496297 -0.101486 -0.801158 0.205409 -0.270142 -0.140093 -0.245411 -0.115439 0.243779 -0.050908 0.163042 -0.277244 -0.153180 -0.293864 -0.204459 -0.032619 -0.818303 0.566688 -0.272611 -0.800283 0.305155 -0.624468 0.159902 0.217740 0.218656 0.618030 0.104861 0.168785 -0.140785 0.256850 -0.159841 0.539334 -0.356366 -0.399611 -0.680568 0.616363 0.041352 -0.348630 -2.200918 0.044597 -0.415452 0.060803 0.197392 -0.930621 -0.497221 0.312650 -0.108494 -0.230574 -0.196682 -0.114453 0.031759 -0.394320 -0.178047 0.037609 0.292642 -0.075953 -0.059575 -0.826268 0.184852 0.695408 -0.408148 -0.669301 -0.174744 0.252021 -0.356716 0.182655 0.795901 -0.415361 0.295613 0.118888 -0.102224 0.346056 0.259928 -0.042216 0.022045 -0.410776 -0.549000 0.427260 -0.257241 0.384607 -0.225165 -0.377371 -0.046558 0.220721 
f1294 0.128426 0.321985 0.094990 -0.041147 -0.139516 0.021552 0.192076 0.385313 0.379018 0.206964 0.028303 -0.229173 -0.177991 -0.148878 -0.025100 -0.576145 0.040415 -0.298278 -0.258329 0.434622 0.116225 0.076506 -0.101136 -0.057451 -0.336980 -0.344557 -0.102011 -0.038513 -0.199573 -0.466231 0.069098 0.293800 0.041147 -0.103562 0.031385 0.604133 0.345392 0.231588 -0.366449 0.007438 0.222693 0.134925 -0.451316 -0.269772 0.749132 -0.066741 -0.169424 -0.105898 -0.158318 0.094325 0.243792 0.126938 0.684756 0.262040 0.136325 0.217090 0.533956 0.169201 -0.228328 0.130642 -0.106799 -0.136524 -0.421264 -0.222633 0.350763 -0.917473 -0.054132 -0.066424 -0.101301 -0.025346 -0.267495 -0.299998 -0.392963 0.346788 0.136244 0.071997 0.306886 0.224421 -0.115348 0.172591 0.696362 0.104781 -1.509178 -0.160445 0.261654 0.029236 -0.068633 -0.071104 -0.668908 -0.059315 -0.163717 -0.173370 0.284364 0.046410 0.223595 -0.424039 -0.230440 -0.234062 -0.034771 0.070364 0.252392 -0.568545 0.342970 0.164150 -0.373778 -0.841732 0.253950 -0.025268 -0.122207 0.122893 0.422859 0.084649 0.268354 -0.121430 -0.173673 -0.158864 -0.537176 0.610354 0.534230 -0.233061 0.061184 0.232467 0.173630 0.803824 0.074381 -0.279180 -0.007262 0.091890 
